<?xml version="1.0"?>
<opencv_storage>
<cascade>
  <stageType>BOOST</stageType>
  <featureType>LBP</featureType>
  <height>24</height>
  <width>29</width>
  <stageParams>
    <boostType>GAB</boostType>
    <minHitRate>9.9500000476837158e-01</minHitRate>
    <maxFalseAlarm>5.0000000000000000e-01</maxFalseAlarm>
    <weightTrimRate>9.4999998807907104e-01</weightTrimRate>
    <maxDepth>1</maxDepth>
    <maxWeakCount>100</maxWeakCount></stageParams>
  <featureParams>
    <maxCatCount>256</maxCatCount>
    <featSize>1</featSize></featureParams>
  <stageNum>19</stageNum>
  <stages>
    <!-- stage 0 -->
    <_>
      <maxWeakCount>9</maxWeakCount>
      <stageThreshold>-1.3856256008148193e+00</stageThreshold>
      <weakClassifiers>
        <_>
          <internalNodes>
            0 -1 28 -1 -1 -1 -8193 2113926143 2147427323 1061124095
            2139043839</internalNodes>
          <leafValues>
            -6.8758714199066162e-01 8.0980980396270752e-01</leafValues></_>
        <_>
          <internalNodes>
            0 -1 28 -167774217 1474761149 2136940541 2136813439
            -748680773 -1288471705 1943515131 327633683</internalNodes>
          <leafValues>
            -5.0054663419723511e-01 4.5761394500732422e-01</leafValues></_>
        <_>
          <internalNodes>
            0 -1 195 -573580344 -174721781 274719187 1561309661
            -1281523253 -48360799 118128639 392126975</internalNodes>
          <leafValues>
            -4.2883813381195068e-01 3.1626990437507629e-01</leafValues></_>
        <_>
          <internalNodes>
            0 -1 414 -68166433 422248482 -1885653867 48956111
            -1854412581 682344627 -546329697 146784751</internalNodes>
          <leafValues>
            -3.2638487219810486e-01 3.5878673195838928e-01</leafValues></_>
        <_>
          <internalNodes>
            0 -1 58 -147372253 -671632869 391609115 -5286101 829641243
            2090079011 2065635131 -76077505</internalNodes>
          <leafValues>
            -2.4103567004203796e-01 4.2145845293998718e-01</leafValues></_>
        <_>
          <internalNodes>
            0 -1 233 -786640552 1061225344 1362334995 -170175501
            -574698765 -1153740404 -1700798533 -576783139</internalNodes>
          <leafValues>
            -2.8774353861808777e-01 3.5253965854644775e-01</leafValues></_>
        <_>
          <internalNodes>
            0 -1 95 1936810096 1537963832 1236016126 1610612730
            870392760 -1353024583 526805951 -570851874</internalNodes>
          <leafValues>
            -2.6688709855079651e-01 3.3580386638641357e-01</leafValues></_>
        <_>
          <internalNodes>
            0 -1 30 -67374137 -615551783 1581632955 -531625 -200786904
            -682551287 1381455776 -703074045</internalNodes>
          <leafValues>
            -2.6333010196685791e-01 3.4384578466415405e-01</leafValues></_>
        <_>
          <internalNodes>
            0 -1 263 -656879448 -778567154 821648008 -238718819
            -1741884180 -1743224693 -1330779909 -1903181601</internalNodes>
          <leafValues>
            -2.4640205502510071e-01 3.5154253244400024e-01</leafValues></_></weakClassifiers></_>
    <!-- stage 1 -->
    <_>
      <maxWeakCount>17</maxWeakCount>
      <stageThreshold>-1.5026904344558716e+00</stageThreshold>
      <weakClassifiers>
        <_>
          <internalNodes>
            0 -1 28 -1 -1 -1 -1 -1025 -35845 2147450879 2147450879</internalNodes>
          <leafValues>
            -5.7033807039260864e-01 7.4755698442459106e-01</leafValues></_>
        <_>
          <internalNodes>
            0 -1 21 -2131457 -1 -17921 -1 -15519053 -4257231 2136684479
            -32905</internalNodes>
          <leafValues>
            -2.6180177927017212e-01 5.6596368551254272e-01</leafValues></_>
        <_>
          <internalNodes>
            0 -1 251 31031545 301400319 13041919 1073686013 -1326454805
            -812802881 1004253183 1610610687</internalNodes>
          <leafValues>
            -3.2454729080200195e-01 3.2178345322608948e-01</leafValues></_>
        <_>
          <internalNodes>
            0 -1 19 -917708835 -316445 -134775361 -2150921 1564486112
            -1143679999 404821216 1459945488</internalNodes>
          <leafValues>
            -3.4945037961006165e-01 2.5417378544807434e-01</leafValues></_>
        <_>
          <internalNodes>
            0 -1 211 -77793064 -149572195 -1117807765 -546975394
            -1139221544 1058742371 840543931 741961903</internalNodes>
          <leafValues>
            -3.6636409163475037e-01 2.3341605067253113e-01</leafValues></_>
        <_>
          <internalNodes>
            0 -1 410 -69207045 -62127864 -414000439 1218480846
            -269697858 -659549543 -1469441 -2138507026</internalNodes>
          <leafValues>
            -2.8908944129943848e-01 2.8875651955604553e-01</leafValues></_>
        <_>
          <internalNodes>
            0 -1 44 1969160755 961848019 69280135 2056205052 558183713
            1898394887 587805463 2011908987</internalNodes>
          <leafValues>
            -2.9237669706344604e-01 2.5942951440811157e-01</leafValues></_>
        <_>
          <internalNodes>
            0 -1 432 713000159 16247017 121557439 536543967 60814078
            198847949 729476218 -1946159169</internalNodes>
          <leafValues>
            -2.5259971618652344e-01 2.8176680207252502e-01</leafValues></_>
        <_>
          <internalNodes>
            0 -1 269 -737636224 897624256 1375733838 -1658333307
            -1723467857 -1641024306 -1400975778 -1627927377</internalNodes>
          <leafValues>
            -2.4552340805530548e-01 2.8381550312042236e-01</leafValues></_>
        <_>
          <internalNodes>
            0 -1 64 -11524107 -537406223 -1623716417 -1208098317
            456339390 -6867312 916658937 -77064652</internalNodes>
          <leafValues>
            -1.9706329703330994e-01 3.5572761297225952e-01</leafValues></_>
        <_>
          <internalNodes>
            0 -1 318 1556991456 -1723743720 -45552768 270522138
            -823938306 -1894835613 -698310142 294357007</internalNodes>
          <leafValues>
            -3.0331897735595703e-01 2.2830373048782349e-01</leafValues></_>
        <_>
          <internalNodes>
            0 -1 165 -141045621 1983383630 1125112844 2023204571
            1347807470 714689068 24113282 287054602</internalNodes>
          <leafValues>
            -4.1370734572410583e-01 1.4315333962440491e-01</leafValues></_>
        <_>
          <internalNodes>
            0 -1 262 -585856880 -641886763 281100915 -106881893
            -253445682 -25310811 -1710298481 -537944837</internalNodes>
          <leafValues>
            -1.9490346312522888e-01 3.4206011891365051e-01</leafValues></_>
        <_>
          <internalNodes>
            0 -1 69 -749636845 -503188 224734403 -539919694 674440722
            1059529595 2121344827 -81564141</internalNodes>
          <leafValues>
            -2.0596078038215637e-01 2.9551026225090027e-01</leafValues></_>
        <_>
          <internalNodes>
            0 -1 427 -1544307457 272307679 -1963095177 1070071279
            -1114400053 767194967 -1639781637 -1281</internalNodes>
          <leafValues>
            -1.6817428171634674e-01 3.7181380391120911e-01</leafValues></_>
        <_>
          <internalNodes>
            0 -1 225 -542245662 1430354580 -1212900160 2012179533
            -1177751350 -660451184 -1868912498 4309218</internalNodes>
          <leafValues>
            -3.2010102272033691e-01 1.9071432948112488e-01</leafValues></_>
        <_>
          <internalNodes>
            0 -1 3 1977614010 -1043728428 -706927738 -339226842
            -1140305658 1073750528 1348469264 -721349632</internalNodes>
          <leafValues>
            -3.0858129262924194e-01 1.9362194836139679e-01</leafValues></_></weakClassifiers></_>
    <!-- stage 2 -->
    <_>
      <maxWeakCount>22</maxWeakCount>
      <stageThreshold>-1.3438810110092163e+00</stageThreshold>
      <weakClassifiers>
        <_>
          <internalNodes>
            0 -1 105 -69730305 -513 2147475455 -33 -263169 1071594491
            2080324607 1073707935</internalNodes>
          <leafValues>
            -5.7946532964706421e-01 6.0498958826065063e-01</leafValues></_>
        <_>
          <internalNodes>
            0 -1 18 -1 -2097665 2112880639 -2098177 -71879885 -47309
            2002072379 -36041</internalNodes>
          <leafValues>
            -3.3283558487892151e-01 4.4656169414520264e-01</leafValues></_>
        <_>
          <internalNodes>
            0 -1 197 22479032 838795325 7012604 1040134829 775596541
            -1129747480 -1469149249 -1612730627</internalNodes>
          <leafValues>
            -3.4554904699325562e-01 2.6496586203575134e-01</leafValues></_>
        <_>
          <internalNodes>
            0 -1 214 -48964133 -11185671 2031081823 -572697225
            -546111569 -82730499 858587103 604460543</internalNodes>
          <leafValues>
            -2.9298618435859680e-01 2.8150883316993713e-01</leafValues></_>
        <_>
          <internalNodes>
            0 -1 115 53424922 320798821 860553467 937366975 830413498
            989472187 654188781 268092650</internalNodes>
          <leafValues>
            -3.1988596916198730e-01 2.5419145822525024e-01</leafValues></_>
        <_>
          <internalNodes>
            0 -1 441 -607143218 -808539302 -1044233730 -1059671936
            -873211142 -2147220990 -162991558 -2139045664</internalNodes>
          <leafValues>
            -2.8069138526916504e-01 2.6338571310043335e-01</leafValues></_>
        <_>
          <internalNodes>
            0 -1 338 -772022017 -680427304 -191651791 435537943
            -793249062 445220539 -732319198 100529903</internalNodes>
          <leafValues>
            -2.7367284893989563e-01 2.3715282976627350e-01</leafValues></_>
        <_>
          <internalNodes>
            0 -1 63 -702448269 -96812124 1461860207 2044539443 855642673
            2014333509 1798323199 655434864</internalNodes>
          <leafValues>
            -3.0499336123466492e-01 2.0379577577114105e-01</leafValues></_>
        <_>
          <internalNodes>
            0 -1 87 1398261520 -1078561473 1368154556 -7235362
            -966819576 -1714667296 139855000 72352000</internalNodes>
          <leafValues>
            -3.4416526556015015e-01 1.6018196940422058e-01</leafValues></_>
        <_>
          <internalNodes>
            0 -1 162 826317768 -712812252 66425648 -1888567024 385926635
            453778076 1000458687 2130775794</internalNodes>
          <leafValues>
            -3.2770165801048279e-01 1.9344525039196014e-01</leafValues></_>
        <_>
          <internalNodes>
            0 -1 70 1943736338 -1103650237 336295199 -48297765 302649680
            1895911976 321016586 -79748093</internalNodes>
          <leafValues>
            -2.5146108865737915e-01 2.3541368544101715e-01</leafValues></_>
        <_>
          <internalNodes>
            0 -1 274 -744820096 1881100426 1035314143 1508867467
            -72377974 9091368 -1515132749 -1820072961</internalNodes>
          <leafValues>
            -2.2408832609653473e-01 2.5699430704116821e-01</leafValues></_>
        <_>
          <internalNodes>
            0 -1 5 1542931682 -774903922 -1981478414 -1013975798
            1074156898 -1557106670 553726032 1398084436</internalNodes>
          <leafValues>
            -3.3620455861091614e-01 1.6599367558956146e-01</leafValues></_>
        <_>
          <internalNodes>
            0 -1 385 32629685 603692479 881854773 498843875 -1041921373
            770541042 65597883 -1686589397</internalNodes>
          <leafValues>
            -1.8802964687347412e-01 2.9200679063796997e-01</leafValues></_>
        <_>
          <internalNodes>
            0 -1 46 419610736 -651839146 1967999072 1786770910 268763186
            1228354607 2081583019 1763989246</internalNodes>
          <leafValues>
            -4.5505511760711670e-01 1.2058535218238831e-01</leafValues></_>
        <_>
          <internalNodes>
            0 -1 184 -1878896448 1978412964 264505 -1386622743 153092233
            -887576448 872819583 -1168093126</internalNodes>
          <leafValues>
            -2.7403181791305542e-01 2.0479537546634674e-01</leafValues></_>
        <_>
          <internalNodes>
            0 -1 287 -938962296 1528612928 -930561778 356714626
            -1405318588 1363961866 982411490 754307</internalNodes>
          <leafValues>
            -4.2047610878944397e-01 1.2211159616708755e-01</leafValues></_>
        <_>
          <internalNodes>
            0 -1 334 -533536444 -173701039 -1391992319 -1870217271
            -1795193332 -125607068 -654400310 805343895</internalNodes>
          <leafValues>
            -3.0757293105125427e-01 1.7933082580566406e-01</leafValues></_>
        <_>
          <internalNodes>
            0 -1 421 -367288544 173253122 1991441644 2214447 -149034864
            1076786032 -1475270549 144561582</internalNodes>
          <leafValues>
            -3.1678605079650879e-01 1.7383307218551636e-01</leafValues></_>
        <_>
          <internalNodes>
            0 -1 113 1384316976 -1716322064 -1217394205 -8542364
            1913657085 -1190378392 2061507755 -82221374</internalNodes>
          <leafValues>
            -2.2244988381862640e-01 2.4632021784782410e-01</leafValues></_>
        <_>
          <internalNodes>
            0 -1 32 1435163112 1851638360 -1244465005 -411060045
            957506240 -102664487 1360033940 1416056848</internalNodes>
          <leafValues>
            -3.5954040288925171e-01 1.5877962112426758e-01</leafValues></_>
        <_>
          <internalNodes>
            0 -1 326 -614153222 497123743 447414721 1070535473 99852534
            110331076 1566127347 -76031489</internalNodes>
          <leafValues>
            -2.1199131011962891e-01 2.5113600492477417e-01</leafValues></_></weakClassifiers></_>
    <!-- stage 3 -->
    <_>
      <maxWeakCount>27</maxWeakCount>
      <stageThreshold>-1.2532626390457153e+00</stageThreshold>
      <weakClassifiers>
        <_>
          <internalNodes>
            0 -1 26 -41944065 -9 -33554465 -24577 -50689 -50689
            2071410687 2147450879</internalNodes>
          <leafValues>
            -4.8264983296394348e-01 5.1632618904113770e-01</leafValues></_>
        <_>
          <internalNodes>
            0 -1 40 -101714317 -35670787 -538969645 -134219009 -4902093
            -1075085505 -134858821 -163841</internalNodes>
          <leafValues>
            -2.9481241106987000e-01 4.0273752808570862e-01</leafValues></_>
        <_>
          <internalNodes>
            0 -1 450 48177883 773795259 2070646659 570384891 -1850504705
            149397495 804781759 -1677725697</internalNodes>
          <leafValues>
            -2.6898729801177979e-01 3.3035749197006226e-01</leafValues></_>
        <_>
          <internalNodes>
            0 -1 8 -67644429 -134526777 -571588401 -1006640497 657077026
            1530090019 1462838033 2133275959</internalNodes>
          <leafValues>
            -3.0764043331146240e-01 2.6480665802955627e-01</leafValues></_>
        <_>
          <internalNodes>
            0 -1 127 -111684902 2144279001 2131636059 -549990351
            -1876915494 -1103159090 625645999 1987786554</internalNodes>
          <leafValues>
            -3.6077094078063965e-01 2.2680968046188354e-01</leafValues></_>
        <_>
          <internalNodes>
            0 -1 412 -69210155 -304759871 -164635942 -2008896412
            -255855465 -221896442 234880534 -2145191798</internalNodes>
          <leafValues>
            -2.7518862485885620e-01 2.7675971388816833e-01</leafValues></_>
        <_>
          <internalNodes>
            0 -1 22 -344457253 -547684651 -16894223 -47154264 215118248
            -1097532012 -143355756 -1526696176</internalNodes>
          <leafValues>
            -2.1361646056175232e-01 2.9459759593009949e-01</leafValues></_>
        <_>
          <internalNodes>
            0 -1 240 2024742016 428507276 -1061907232 902660301
            405983266 -2004320118 -529751894 510186</internalNodes>
          <leafValues>
            -3.9804494380950928e-01 1.6066895425319672e-01</leafValues></_>
        <_>
          <internalNodes>
            0 -1 435 -673188709 1441967264 -50419604 976926012
            -1496451122 1680310241 -839154543 -1607940935</internalNodes>
          <leafValues>
            -2.2411398589611053e-01 2.6580435037612915e-01</leafValues></_>
        <_>
          <internalNodes>
            0 -1 52 -15337165 1467741287 640314026 -538136647 2131850543
            1602189687 1913748399 -1419556236</internalNodes>
          <leafValues>
            -2.3322378098964691e-01 2.5071027874946594e-01</leafValues></_>
        <_>
          <internalNodes>
            0 -1 254 -2082745135 1066648889 -1384435267 2147479029
            130395380 54495675 -1548598555 715043581</internalNodes>
          <leafValues>
            -2.3822122812271118e-01 2.5582221150398254e-01</leafValues></_>
        <_>
          <internalNodes>
            0 -1 146 127918541 362359661 2106924841 -816506289
            1513370004 805472961 -1199398919 1022298006</internalNodes>
          <leafValues>
            -3.0693867802619934e-01 1.8519265949726105e-01</leafValues></_>
        <_>
          <internalNodes>
            0 -1 291 -787703160 -217341754 -1548125014 1426146367
            -1165129524 -651650801 -2096125241 -1080567425</internalNodes>
          <leafValues>
            -2.0256070792675018e-01 2.9500401020050049e-01</leafValues></_>
        <_>
          <internalNodes>
            0 -1 1 -104858639 -743854896 1054604844 -672713209
            -1090202876 -261506140 -1605317536 -171084780</internalNodes>
          <leafValues>
            -2.0526136457920074e-01 2.7164790034294128e-01</leafValues></_>
        <_>
          <internalNodes>
            0 -1 373 -688601382 -235601274 1706504905 -1318734850
            -660765981 -753158004 -389252218 -1282686325</internalNodes>
          <leafValues>
            -1.7786632478237152e-01 3.0991488695144653e-01</leafValues></_>
        <_>
          <internalNodes>
            0 -1 92 -1247100716 1997762592 -116163642 -1081925021
            493053072 -1078693519 593526175 -1778159517</internalNodes>
          <leafValues>
            -2.6153314113616943e-01 2.1129688620567322e-01</leafValues></_>
        <_>
          <internalNodes>
            0 -1 239 -254039972 -648995439 1850912872 88022185
            -1698836094 -1350020480 -1983980294 44157578</internalNodes>
          <leafValues>
            -2.8133639693260193e-01 1.9028614461421967e-01</leafValues></_>
        <_>
          <internalNodes>
            0 -1 405 935454798 -223930290 2051314206 8415867 -797636397
            -554329549 -1640194286 -2147430860</internalNodes>
          <leafValues>
            -2.6451826095581055e-01 2.0508655905723572e-01</leafValues></_>
        <_>
          <internalNodes>
            0 -1 249 1460771968 839157170 1088696336 366714333
            2020255130 2049390369 48221867 201877640</internalNodes>
          <leafValues>
            -3.6645373702049255e-01 1.3875463604927063e-01</leafValues></_>
        <_>
          <internalNodes>
            0 -1 82 -548401 2012738327 -1137516681 1207754015 -404514
            1903363330 -752732233 -33851597</internalNodes>
          <leafValues>
            -1.9453933835029602e-01 2.8230994939804077e-01</leafValues></_>
        <_>
          <internalNodes>
            0 -1 363 -731744621 -1682485321 241127852 -1867902389
            -933729163 -112620572 -95580181 -1984183829</internalNodes>
          <leafValues>
            -1.7533877491950989e-01 3.1828454136848450e-01</leafValues></_>
        <_>
          <internalNodes>
            0 -1 395 -2066612712 226607271 286661664 331191643 743034776
            183117458 -1462320837 166714383</internalNodes>
          <leafValues>
            -2.9447013139724731e-01 1.8243287503719330e-01</leafValues></_>
        <_>
          <internalNodes>
            0 -1 415 -236061312 -2095493056 -1350540931 16491682
            -2094391773 -1005344197 -249700117 30607499</internalNodes>
          <leafValues>
            -2.9360234737396240e-01 1.7234762012958527e-01</leafValues></_>
        <_>
          <internalNodes>
            0 -1 192 1562181716 1426359140 2051337192 -710115739
            665963792 -1078783539 2056068779 1423203925</internalNodes>
          <leafValues>
            -3.3148658275604248e-01 1.6103905439376831e-01</leafValues></_>
        <_>
          <internalNodes>
            0 -1 27 -822299440 -12586181 -1190110652 -1140371821
            2015463552 357693860 -1333513048 895746112</internalNodes>
          <leafValues>
            -3.7636154890060425e-01 1.2713035941123962e-01</leafValues></_>
        <_>
          <internalNodes>
            0 -1 128 1392570528 1439698961 859468381 -88654513 640289260
            172950085 1350330238 -50440374</internalNodes>
          <leafValues>
            -2.7961820363998413e-01 1.8782013654708862e-01</leafValues></_>
        <_>
          <internalNodes>
            0 -1 185 -2123626279 324534343 53872840 1071539549 570466942
            2122613224 -2109961283 686730075</internalNodes>
          <leafValues>
            -2.8747949004173279e-01 1.8316684663295746e-01</leafValues></_></weakClassifiers></_>
    <!-- stage 4 -->
    <_>
      <maxWeakCount>25</maxWeakCount>
      <stageThreshold>-1.2642172574996948e+00</stageThreshold>
      <weakClassifiers>
        <_>
          <internalNodes>
            0 -1 83 -2049 -40961 -56353 -1 -33606733 -536923344 -183489
            -51401</internalNodes>
          <leafValues>
            -2.8830137848854065e-01 5.5664408206939697e-01</leafValues></_>
        <_>
          <internalNodes>
            0 -1 238 -525697 -67139347 2143269566 -1107361281 -12743729
            199983863 -222306341 -1342209281</internalNodes>
          <leafValues>
            -2.4389606714248657e-01 4.4564473628997803e-01</leafValues></_>
        <_>
          <internalNodes>
            0 -1 441 -541073665 -762917502 1606098672 -1005944696
            -80019925 -857473964 -403728765 -2141142042</internalNodes>
          <leafValues>
            -2.5534778833389282e-01 3.4366121888160706e-01</leafValues></_>
        <_>
          <internalNodes>
            0 -1 53 -178826253 -211979053 2004809599 -13337730 321009306
            2141732810 1660743647 -4194849</internalNodes>
          <leafValues>
            -2.6683676242828369e-01 3.2530373334884644e-01</leafValues></_>
        <_>
          <internalNodes>
            0 -1 246 -717140935 -1794258881 -2062771954 -1387453033
            -590968181 -1301616462 646159019 673425823</internalNodes>
          <leafValues>
            -3.1978970766067505e-01 2.2974814474582672e-01</leafValues></_>
        <_>
          <internalNodes>
            0 -1 432 -2104764161 25028720 597672181 354391039 19849915
            35364524 197131983 -1610629121</internalNodes>
          <leafValues>
            -1.8749924004077911e-01 3.8954108953475952e-01</leafValues></_>
        <_>
          <internalNodes>
            0 -1 10 2132146682 -237638202 -54011953 -537011763 41985152
            -515477359 50417920 -150638331</internalNodes>
          <leafValues>
            -3.2449173927307129e-01 2.1048493683338165e-01</leafValues></_>
        <_>
          <internalNodes>
            0 -1 434 -223229496 -132101052 -117938440 -1909840032
            -1937793812 -2125692988 -1531465749 -1968455329</internalNodes>
          <leafValues>
            -2.0411247014999390e-01 3.3935210108757019e-01</leafValues></_>
        <_>
          <internalNodes>
            0 -1 294 1506675964 269714121 135397696 332991415 579066872
            672729809 -104413063 1069517260</internalNodes>
          <leafValues>
            -3.6252763867378235e-01 1.8938718736171722e-01</leafValues></_>
        <_>
          <internalNodes>
            0 -1 142 -616951624 -208108068 528482777 -240631724
            -1412278292 -1334648752 864223946 1393819684</internalNodes>
          <leafValues>
            -3.0264115333557129e-01 2.2133435308933258e-01</leafValues></_>
        <_>
          <internalNodes>
            0 -1 178 -1138484008 -572376704 341986440 -267027068
            -885930808 -624942976 822090377 541274128</internalNodes>
          <leafValues>
            -3.7016290426254272e-01 1.9156235456466675e-01</leafValues></_>
        <_>
          <internalNodes>
            0 -1 422 -746082086 274724934 -2000829941 702081977
            -1050771296 527538455 -975316146 -741635890</internalNodes>
          <leafValues>
            -2.1369642019271851e-01 3.2181841135025024e-01</leafValues></_>
        <_>
          <internalNodes>
            0 -1 12 -211026053 -647500937 -1349781050 1601173375
            -1486761173 1361723955 388706318 -25723097</internalNodes>
          <leafValues>
            -1.9285112619400024e-01 3.3810460567474365e-01</leafValues></_>
        <_>
          <internalNodes>
            0 -1 439 -234106382 -494251816 16924688 578945034 84461676
            -838074368 -1693496483 -2111520688</internalNodes>
          <leafValues>
            -3.1939277052879333e-01 2.1806760132312775e-01</leafValues></_>
        <_>
          <internalNodes>
            0 -1 243 -1336903548 -176188400 1360315919 1364283601
            -1173856584 -64964480 -1308578866 140576955</internalNodes>
          <leafValues>
            -2.9904681444168091e-01 2.1252903342247009e-01</leafValues></_>
        <_>
          <internalNodes>
            0 -1 165 -2054759213 1022992540 -468395006 -58226785
            -32922462 -935163872 1072097451 1035866139</internalNodes>
          <leafValues>
            -3.4410783648490906e-01 1.9565345346927643e-01</leafValues></_>
        <_>
          <internalNodes>
            0 -1 152 825925819 872098645 95748369 120984893 -1442477633
            448439752 953028846 1300728812</internalNodes>
          <leafValues>
            -2.8956747055053711e-01 2.2856941819190979e-01</leafValues></_>
        <_>
          <internalNodes>
            0 -1 77 -232835582 -686739744 2124908887 -4759863
            -1269144544 608993060 -1564572757 -217367505</internalNodes>
          <leafValues>
            -1.9432803988456726e-01 3.4956857562065125e-01</leafValues></_>
        <_>
          <internalNodes>
            0 -1 403 -201462325 904862439 -2069151605 1566933312
            -1202527718 -1141317548 1125483124 -144715033</internalNodes>
          <leafValues>
            -1.4730964601039886e-01 4.3293076753616333e-01</leafValues></_>
        <_>
          <internalNodes>
            0 -1 410 -1731522422 -115780984 1162777408 469930065
            -2105229396 -266280952 -556042802 -1874686772</internalNodes>
          <leafValues>
            -2.6129350066184998e-01 2.4220216274261475e-01</leafValues></_>
        <_>
          <internalNodes>
            0 -1 365 -901191674 1369051238 -1794704368 285303172
            -1676894054 875111072 -1446660813 10205131</internalNodes>
          <leafValues>
            -3.1368726491928101e-01 2.0010732114315033e-01</leafValues></_>
        <_>
          <internalNodes>
            0 -1 376 -1011159838 1360191760 -935214112 1476943704
            -1061658198 1074790445 -2067165216 200505475</internalNodes>
          <leafValues>
            -3.2197979092597961e-01 1.9141119718551636e-01</leafValues></_>
        <_>
          <internalNodes>
            0 -1 309 -689452928 -605933948 -353423695 -575705943
            -668089330 -1935151511 -625291605 -1550891816</internalNodes>
          <leafValues>
            -1.5617047250270844e-01 3.8862618803977966e-01</leafValues></_>
        <_>
          <internalNodes>
            0 -1 114 -1877388525 2001822929 983675711 -680809417
            908293626 2046453872 1008886975 -1626770227</internalNodes>
          <leafValues>
            -1.9130936264991760e-01 3.2601305842399597e-01</leafValues></_>
        <_>
          <internalNodes>
            0 -1 276 -640820136 1368228115 -2094146680 364875978
            -256984350 852258008 1602613239 -1987868298</internalNodes>
          <leafValues>
            -2.3036858439445496e-01 2.7232465147972107e-01</leafValues></_></weakClassifiers></_>
    <!-- stage 5 -->
    <_>
      <maxWeakCount>26</maxWeakCount>
      <stageThreshold>-1.2193089723587036e+00</stageThreshold>
      <weakClassifiers>
        <_>
          <internalNodes>
            0 -1 18 -8390657 -134231361 -2234625 -2164801 -53009485
            -55693 -36045 -2132101</internalNodes>
          <leafValues>
            -2.4581724405288696e-01 5.3993612527847290e-01</leafValues></_>
        <_>
          <internalNodes>
            0 -1 189 -604099649 -1722447187 -2012839085 -1077967943
            991472351 -1157559765 -685790241 738143195</internalNodes>
          <leafValues>
            -4.0780428051948547e-01 2.5431284308433533e-01</leafValues></_>
        <_>
          <internalNodes>
            0 -1 430 61843695 63951855 398274367 -1309939761 20954095
            129957039 568297439 -540029201</internalNodes>
          <leafValues>
            -2.4191313982009888e-01 3.3592864871025085e-01</leafValues></_>
        <_>
          <internalNodes>
            0 -1 176 -565390916 -113907931 459818264 -653265525
            -792862549 422187783 1581514730 1063242774</internalNodes>
          <leafValues>
            -3.5245397686958313e-01 2.2499521076679230e-01</leafValues></_>
        <_>
          <internalNodes>
            0 -1 73 1100173843 1433803056 729904507 1396278165 839529507
            1898009088 1932489657 2069037861</internalNodes>
          <leafValues>
            -3.4571334719657898e-01 2.1347811818122864e-01</leafValues></_>
        <_>
          <internalNodes>
            0 -1 440 -204474930 -250838856 1934994323 -1736408874
            -1027569461 -1912201087 -92017206 -2147301286</internalNodes>
          <leafValues>
            -2.8083631396293640e-01 2.2368639707565308e-01</leafValues></_>
        <_>
          <internalNodes>
            0 -1 232 1363270816 923349512 -284034117 -69256949
            -754263329 -124939063 -536348945 -23229207</internalNodes>
          <leafValues>
            -1.5433911979198456e-01 3.6168920993804932e-01</leafValues></_>
        <_>
          <internalNodes>
            0 -1 2 -134219905 -773094257 -268734851 -629735425
            2031298064 1693525022 1936423170 -46696669</internalNodes>
          <leafValues>
            -2.0157597959041595e-01 3.3603307604789734e-01</leafValues></_>
        <_>
          <internalNodes>
            0 -1 390 1591988697 1597063809 -1419549591 7097841
            -1334972270 841712117 -962408678 37741563</internalNodes>
          <leafValues>
            -2.5020918250083923e-01 2.3063820600509644e-01</leafValues></_>
        <_>
          <internalNodes>
            0 -1 288 -1064729916 -1723461948 50375296 1393182669
            -691083126 429869061 -1236639190 4933647</internalNodes>
          <leafValues>
            -3.5551288723945618e-01 1.4341233670711517e-01</leafValues></_>
        <_>
          <internalNodes>
            0 -1 99 1967543828 -595631038 1900415850 -548504617
            1531974074 1304384445 789209054 -6197011</internalNodes>
          <leafValues>
            -2.3244512081146240e-01 2.3954732716083527e-01</leafValues></_>
        <_>
          <internalNodes>
            0 -1 23 2077488991 -69347889 -1046865235 -6560647 1284512153
            -80448111 538981536 1597449041</internalNodes>
          <leafValues>
            -2.4831272661685944e-01 2.2411870956420898e-01</leafValues></_>
        <_>
          <internalNodes>
            0 -1 310 -270600504 -1216200664 549912720 1173312856
            1049654183 739940763 300782203 703390331</internalNodes>
          <leafValues>
            -2.5310930609703064e-01 1.9931323826313019e-01</leafValues></_>
        <_>
          <internalNodes>
            0 -1 109 -1035025928 2021404255 -787984024 -1882057499
            539282344 1477518112 474191513 1882268174</internalNodes>
          <leafValues>
            -4.2608237266540527e-01 1.2442448735237122e-01</leafValues></_>
        <_>
          <internalNodes>
            0 -1 33 -99615566 -421892202 -1091678541 -1145094351
            939402628 839221245 460402688 -751872953</internalNodes>
          <leafValues>
            -1.9899541139602661e-01 2.4968916177749634e-01</leafValues></_>
        <_>
          <internalNodes>
            0 -1 169 2046836696 956433952 -2126275847 1228722304
            -1466430978 -729724780 654361039 268501012</internalNodes>
          <leafValues>
            -3.1400594115257263e-01 1.5091419219970703e-01</leafValues></_>
        <_>
          <internalNodes>
            0 -1 137 199332249 2065284581 669646875 1068826907 313396218
            1054555858 1050608377 -540663087</internalNodes>
          <leafValues>
            -1.6440933942794800e-01 2.9778644442558289e-01</leafValues></_>
        <_>
          <internalNodes>
            0 -1 350 -762756984 1940639948 630252168 32105987 42500610
            18377715 162687426 26192863</internalNodes>
          <leafValues>
            -3.2845762372016907e-01 1.4878568053245544e-01</leafValues></_>
        <_>
          <internalNodes>
            0 -1 456 -2104524389 41492326 -1359006085 1671941141
            -2063617852 62904188 -1921210981 -1885344033</internalNodes>
          <leafValues>
            -1.8510994315147400e-01 2.7810040116310120e-01</leafValues></_>
        <_>
          <internalNodes>
            0 -1 369 -875565239 -951657 -1107571535 956961551
            -1310392386 -2104886389 -1374963828 -1607975749</internalNodes>
          <leafValues>
            -1.8293084204196930e-01 2.6619353890419006e-01</leafValues></_>
        <_>
          <internalNodes>
            0 -1 179 20484232 1464245355 -1844787917 -804579167
            828182698 250284335 192090040 498482674</internalNodes>
          <leafValues>
            -3.7976297736167908e-01 1.3054074347019196e-01</leafValues></_>
        <_>
          <internalNodes>
            0 -1 356 1522586862 -1715426816 178592017 291441097
            -1626076469 191540979 1327649692 -341871974</internalNodes>
          <leafValues>
            -2.0095661282539368e-01 2.3944929242134094e-01</leafValues></_>
        <_>
          <internalNodes>
            0 -1 321 -213864398 1095603078 134348937 53020320 25200266
            562233896 4901968 37691560</internalNodes>
          <leafValues>
            -3.8796490430831909e-01 1.2023996561765671e-01</leafValues></_>
        <_>
          <internalNodes>
            0 -1 25 -1728731776 616125779 -662616877 -812957241
            1943031952 -166374912 -786294240 1899319634</internalNodes>
          <leafValues>
            -4.5879453420639038e-01 9.9766321480274200e-02</leafValues></_>
        <_>
          <internalNodes>
            0 -1 126 589308060 -582910832 -1451179585 -1920563013
            -1163919122 -274576910 -1449088613 -599128691</internalNodes>
          <leafValues>
            -1.5146134793758392e-01 3.4115990996360779e-01</leafValues></_>
        <_>
          <internalNodes>
            0 -1 208 59528354 -720325615 1065366713 -1114246179
            -1291818343 -1115890240 781318286 -9222645</internalNodes>
          <leafValues>
            -1.8344184756278992e-01 2.5821897387504578e-01</leafValues></_></weakClassifiers></_>
    <!-- stage 6 -->
    <_>
      <maxWeakCount>22</maxWeakCount>
      <stageThreshold>-1.3532657623291016e+00</stageThreshold>
      <weakClassifiers>
        <_>
          <internalNodes>
            0 -1 187 -34215169 -198192291 -1707120370 -1074650573
            -25328677 -72408575 -339252297 2147433407</internalNodes>
          <leafValues>
            -3.4179720282554626e-01 4.7165390849113464e-01</leafValues></_>
        <_>
          <internalNodes>
            0 -1 15 -613944389 -50479369 184847173 -268435461 -881581133
            -4433053 2031366947 -49345</internalNodes>
          <leafValues>
            -3.0191233754158020e-01 3.5754147171974182e-01</leafValues></_>
        <_>
          <internalNodes>
            0 -1 411 -673189969 -118172542 796441574 -1610086812
            -358632781 -889175036 -335549526 -2143109602</internalNodes>
          <leafValues>
            -2.9388451576232910e-01 3.2298618555068970e-01</leafValues></_>
        <_>
          <internalNodes>
            0 -1 107 1596215797 -677347847 341928111 2111831376
            -730852472 -433817040 301996879 1930367911</internalNodes>
          <leafValues>
            -4.3373245000839233e-01 2.0025227963924408e-01</leafValues></_>
        <_>
          <internalNodes>
            0 -1 360 152772731 47649297 -2079239145 623221015 13533349
            233394345 1597221115 230394075</internalNodes>
          <leafValues>
            -3.3622634410858154e-01 2.5051125884056091e-01</leafValues></_>
        <_>
          <internalNodes>
            0 -1 148 -473922824 -57236064 1760053400 -1522688448
            36885008 -91405692 999950970 -269208408</internalNodes>
          <leafValues>
            -3.1128183007240295e-01 2.4538628756999969e-01</leafValues></_>
        <_>
          <internalNodes>
            0 -1 65 1366503891 -143060093 255344905 -42708351 851403711
            2079856791 301599470 -306282850</internalNodes>
          <leafValues>
            -1.8264095485210419e-01 3.8651001453399658e-01</leafValues></_>
        <_>
          <internalNodes>
            0 -1 316 1443541418 1421918222 1150452953 1376608326
            -1034960344 1946452096 2047788631 38371547</internalNodes>
          <leafValues>
            -3.8016420602798462e-01 1.6389489173889160e-01</leafValues></_>
        <_>
          <internalNodes>
            0 -1 387 -138343 -74619247 -143720969 -2011128665 -2630004
            -32946786 -1443365687 -2006771992</internalNodes>
          <leafValues>
            -1.7353224754333496e-01 3.8827759027481079e-01</leafValues></_>
        <_>
          <internalNodes>
            0 -1 393 2136182954 1505743877 -1207787507 20121858
            -1631006519 824312617 -260865496 126744191</internalNodes>
          <leafValues>
            -3.1658002734184265e-01 2.1257881820201874e-01</leafValues></_>
        <_>
          <internalNodes>
            0 -1 84 -1651410746 -44756528 218428892 -140436672 137517512
            -132082686 1344274440 386924612</internalNodes>
          <leafValues>
            -3.6643415689468384e-01 1.9386847317218781e-01</leafValues></_>
        <_>
          <internalNodes>
            0 -1 296 -704514934 1502625826 279463061 -2122233715
            -532496250 -1140063608 -1031740853 42183131</internalNodes>
          <leafValues>
            -2.9542940855026245e-01 2.2723251581192017e-01</leafValues></_>
        <_>
          <internalNodes>
            0 -1 204 -791626544 -684452868 1646857799 -1851424689
            -1466630916 -57760560 -1107520371 -785837590</internalNodes>
          <leafValues>
            -2.2992318868637085e-01 2.8620997071266174e-01</leafValues></_>
        <_>
          <internalNodes>
            0 -1 264 -1806626728 820084748 739639477 1068204531
            501741987 1155600579 -1597472109 497129165</internalNodes>
          <leafValues>
            -3.4339517354965210e-01 1.9139845669269562e-01</leafValues></_>
        <_>
          <internalNodes>
            0 -1 61 1381305863 1935405342 1210279958 -1010708394
            1997607681 1678973441 2132435963 -67413189</internalNodes>
          <leafValues>
            -2.3815795779228210e-01 2.7062198519706726e-01</leafValues></_>
        <_>
          <internalNodes>
            0 -1 362 -440025016 -787939325 1455436624 1840272439
            -798047029 -18343725 -1562268759 2505163</internalNodes>
          <leafValues>
            -3.1024113297462463e-01 1.9480538368225098e-01</leafValues></_>
        <_>
          <internalNodes>
            0 -1 29 -173181226 -227573970 707784349 -204477716
            -451361020 203220788 -1188105216 -1287146476</internalNodes>
          <leafValues>
            -2.1598829329013824e-01 2.8276643157005310e-01</leafValues></_>
        <_>
          <internalNodes>
            0 -1 41 -1298667452 -1207951115 -739098279 -1085304740
            21103852 933495008 270668249 1696034868</internalNodes>
          <leafValues>
            -4.1313427686691284e-01 1.4777103066444397e-01</leafValues></_>
        <_>
          <internalNodes>
            0 -1 194 -2025829924 -682077488 474371485 -582146231
            -572929800 -37625656 -1354084609 -1085242134</internalNodes>
          <leafValues>
            -1.8968933820724487e-01 3.4057489037513733e-01</leafValues></_>
        <_>
          <internalNodes>
            0 -1 452 -1813408045 -868249745 -1694552160 279675003
            1014386099 629026686 331087615 -153096457</internalNodes>
          <leafValues>
            -1.5839847922325134e-01 3.7798845767974854e-01</leafValues></_>
        <_>
          <internalNodes>
            0 -1 308 -804717326 -7520026 949641328 19238927 -397370744
            1515153994 817545831 574861903</internalNodes>
          <leafValues>
            -2.8223469853401184e-01 2.1860001981258392e-01</leafValues></_>
        <_>
          <internalNodes>
            0 -1 121 -716836648 -41079368 883939993 -445184511
            -1677029190 -1726931743 34233243 -764854253</internalNodes>
          <leafValues>
            -2.0006157457828522e-01 3.2476437091827393e-01</leafValues></_></weakClassifiers></_>
    <!-- stage 7 -->
    <_>
      <maxWeakCount>30</maxWeakCount>
      <stageThreshold>-1.1943837404251099e+00</stageThreshold>
      <weakClassifiers>
        <_>
          <internalNodes>
            0 -1 88 2145351423 -8389131 -604016673 -18 -67438913
            -68177203 2136731647 2013222739</internalNodes>
          <leafValues>
            -3.7816557288169861e-01 3.9619612693786621e-01</leafValues></_>
        <_>
          <internalNodes>
            0 -1 59 2003859251 2071440871 1551597375 -1509983157
            863007167 -80390217 1073201135 -822275</internalNodes>
          <leafValues>
            -2.7080884575843811e-01 3.3742877840995789e-01</leafValues></_>
        <_>
          <internalNodes>
            0 -1 447 -2037445985 148300243 327699219 63686899 554604707
            25445251 -1826417725 -1610638353</internalNodes>
          <leafValues>
            -2.8584346175193787e-01 2.8502392768859863e-01</leafValues></_>
        <_>
          <internalNodes>
            0 -1 195 -666838496 -578482151 1355019123 2098558295
            -779831057 1067897218 1246294010 370949086</internalNodes>
          <leafValues>
            -4.1666030883789063e-01 1.6918841004371643e-01</leafValues></_>
        <_>
          <internalNodes>
            0 -1 6 -153099265 -545824429 -504374426 -578820563
            -515690208 -215876592 1975599152 1967346433</internalNodes>
          <leafValues>
            -2.9437506198883057e-01 2.4469161033630371e-01</leafValues></_>
        <_>
          <internalNodes>
            0 -1 337 -361276437 -181841388 1591690432 856473862
            1742187282 -1711816566 -202913814 9152643</internalNodes>
          <leafValues>
            -3.0903020501136780e-01 1.8565654754638672e-01</leafValues></_>
        <_>
          <internalNodes>
            0 -1 282 19610011 468129437 330673055 531963950 741606814
            682947198 765835499 794286510</internalNodes>
          <leafValues>
            -2.0558607578277588e-01 2.7108159661293030e-01</leafValues></_>
        <_>
          <internalNodes>
            0 -1 24 1945494969 1744281463 536504571 -1076890113
            -44928776 -1098667 1715583231 -76066493</internalNodes>
          <leafValues>
            -2.0786873996257782e-01 2.7061814069747925e-01</leafValues></_>
        <_>
          <internalNodes>
            0 -1 51 -174263517 1635678805 1944747443 -346860021
            861422426 -1285822640 1943091807 -13940002</internalNodes>
          <leafValues>
            -2.1552650630474091e-01 2.5725984573364258e-01</leafValues></_>
        <_>
          <internalNodes>
            0 -1 351 -883373944 1473445164 -1542438903 1067194199
            428507342 145527959 1369268440 201296831</internalNodes>
          <leafValues>
            -2.7750539779663086e-01 1.8969805538654327e-01</leafValues></_>
        <_>
          <internalNodes>
            0 -1 237 -1131807240 -1324219115 1553401233 420554113
            1223581892 990380425 -1148531826 271288458</internalNodes>
          <leafValues>
            -2.6630082726478577e-01 1.8953901529312134e-01</leafValues></_>
        <_>
          <internalNodes>
            0 -1 133 286290840 1931095306 1467310226 -1473928123
            -870014052 2064253416 156193935 -15825716</internalNodes>
          <leafValues>
            -1.9618324935436249e-01 2.5602063536643982e-01</leafValues></_>
        <_>
          <internalNodes>
            0 -1 440 -1280837698 -616687346 830554604 405016580
            -319096640 -723480408 512877035 -2004711024</internalNodes>
          <leafValues>
            -2.5837141275405884e-01 1.9901739060878754e-01</leafValues></_>
        <_>
          <internalNodes>
            0 -1 167 1635373208 -137718630 2112570903 1373213314
            274969546 -1078027827 -969475884 -69369858</internalNodes>
          <leafValues>
            -1.6448697447776794e-01 2.9131498932838440e-01</leafValues></_>
        <_>
          <internalNodes>
            0 -1 374 -789851076 1380993052 -1338603115 -1340017766
            -164696192 -1666956231 961693903 -1606831106</internalNodes>
          <leafValues>
            -2.1226271986961365e-01 2.2427824139595032e-01</leafValues></_>
        <_>
          <internalNodes>
            0 -1 78 1537041410 1365065989 92738595 2140090507 571172384
            608894978 331510575 1797995306</internalNodes>
          <leafValues>
            -2.7910307049751282e-01 1.7337103188037872e-01</leafValues></_>
        <_>
          <internalNodes>
            0 -1 205 -634204008 -1173675736 146802968 831784401
            -1293907764 -1177942968 -2134217553 1028377563</internalNodes>
          <leafValues>
            -2.1864892542362213e-01 2.2570164501667023e-01</leafValues></_>
        <_>
          <internalNodes>
            0 -1 307 1354779858 -1719580352 906513008 1284600073
            -163414518 1481556133 -256456054 770223</internalNodes>
          <leafValues>
            -2.9468345642089844e-01 1.6221798956394196e-01</leafValues></_>
        <_>
          <internalNodes>
            0 -1 0 -68552966 1894547420 -285254030 2078011279 -446775407
            1078775157 -1242545920 -1231342063</internalNodes>
          <leafValues>
            -1.8229004740715027e-01 2.6330342888832092e-01</leafValues></_>
        <_>
          <internalNodes>
            0 -1 418 -1611803310 575998737 -1927233372 538242858
            -628532503 -790788048 -1387791696 -1060456795</internalNodes>
          <leafValues>
            -2.4781246483325958e-01 1.9991073012351990e-01</leafValues></_>
        <_>
          <internalNodes>
            0 -1 272 -669508536 -240962928 2086564281 364189405
            -1178439674 -2099630074 -284524402 702</internalNodes>
          <leafValues>
            -2.9355511069297791e-01 1.6668735444545746e-01</leafValues></_>
        <_>
          <internalNodes>
            0 -1 141 334721631 -547506415 2137987779 -103100934
            -761966975 -313129173 -652687160 -93902078</internalNodes>
          <leafValues>
            -1.9348399341106415e-01 2.5728744268417358e-01</leafValues></_>
        <_>
          <internalNodes>
            0 -1 289 -7809326 1369690842 423144306 1374342396 -561711386
            -551505787 -1591765800 -671114925</internalNodes>
          <leafValues>
            -1.7437811195850372e-01 2.8470024466514587e-01</leafValues></_>
        <_>
          <internalNodes>
            0 -1 136 -1165009185 1467431774 253963741 2119913330
            992179131 531841777 2051945131 -606514072</internalNodes>
          <leafValues>
            -1.4792308211326599e-01 3.1687545776367188e-01</leafValues></_>
        <_>
          <internalNodes>
            0 -1 220 285798616 1336415233 1253448149 521627380
            1343230090 2142119098 -1824372290 -9765973</internalNodes>
          <leafValues>
            -2.1108810603618622e-01 2.1594358980655670e-01</leafValues></_>
        <_>
          <internalNodes>
            0 -1 31 -731652470 1200833966 -651094135 734927983
            1274171424 -1424665244 2000617985 1863595539</internalNodes>
          <leafValues>
            -3.8248929381370544e-01 1.2507651746273041e-01</leafValues></_>
        <_>
          <internalNodes>
            0 -1 339 284884154 358007949 31121610 -796773241 818069922
            183257698 -1588934578 11256019</internalNodes>
          <leafValues>
            -2.9908567667007446e-01 1.6065788269042969e-01</leafValues></_>
        <_>
          <internalNodes>
            0 -1 392 -847060734 -1251678974 555796512 5753350 150483432
            127405053 -1997823616 33780536</internalNodes>
          <leafValues>
            -3.5410562157630920e-01 1.3428153097629547e-01</leafValues></_>
        <_>
          <internalNodes>
            0 -1 387 -210775468 -76188100 -8458243 -1876783558 -19006411
            -1649097330 -218259525 -2104566206</internalNodes>
          <leafValues>
            -1.9476857781410217e-01 2.5013342499732971e-01</leafValues></_>
        <_>
          <internalNodes>
            0 -1 267 -641412406 1940115653 -238219891 493321409
            -1400335972 -2135289652 -1019954453 629425406</internalNodes>
          <leafValues>
            -2.4114821851253510e-01 1.9295386970043182e-01</leafValues></_></weakClassifiers></_>
    <!-- stage 8 -->
    <_>
      <maxWeakCount>25</maxWeakCount>
      <stageThreshold>-1.2937850952148438e+00</stageThreshold>
      <weakClassifiers>
        <_>
          <internalNodes>
            0 -1 83 -140321 -343936553 -335571981 -67665 -596156133
            -1090571752 -1212214593 -33993</internalNodes>
          <leafValues>
            -1.9645187258720398e-01 4.9146831035614014e-01</leafValues></_>
        <_>
          <internalNodes>
            0 -1 227 -135274881 -170950187 -744084809 -570455559
            -29454353 -1347649494 -147607329 -1073902593</internalNodes>
          <leafValues>
            -1.9452804327011108e-01 4.3768274784088135e-01</leafValues></_>
        <_>
          <internalNodes>
            0 -1 432 42369194 135766032 -2124594543 755995459
            -1479302725 689078273 59759274 267381759</internalNodes>
          <leafValues>
            -3.8337811827659607e-01 2.1701234579086304e-01</leafValues></_>
        <_>
          <internalNodes>
            0 -1 404 1989399803 -25116586 1135386509 -1845470100
            -1298143541 -13967314 -877695025 -1028982070</internalNodes>
          <leafValues>
            -2.1518667042255402e-01 3.5598379373550415e-01</leafValues></_>
        <_>
          <internalNodes>
            0 -1 72 1597326091 2041646692 -124187608 -1616698291
            1932342323 1058235242 856848155 -13149313</internalNodes>
          <leafValues>
            -2.8184103965759277e-01 2.3377072811126709e-01</leafValues></_>
        <_>
          <internalNodes>
            0 -1 143 -1049667280 1530991904 -703598375 -1691313774
            -2004203784 -1400894448 -1867475876 65896</internalNodes>
          <leafValues>
            -3.1552365422248840e-01 2.1565309166908264e-01</leafValues></_>
        <_>
          <internalNodes>
            0 -1 158 1091627085 -1572153136 1703948211 1859950450
            -1039736854 1038946122 713739979 68033115</internalNodes>
          <leafValues>
            -4.2986413836479187e-01 1.2579318881034851e-01</leafValues></_>
        <_>
          <internalNodes>
            0 -1 101 1364398616 2000794737 890572888 1821131868
            1094845082 749241484 1477266126 1473929737</internalNodes>
          <leafValues>
            -3.3261370658874512e-01 1.8672487139701843e-01</leafValues></_>
        <_>
          <internalNodes>
            0 -1 4 -78949414 -2960678 -1052060534 -1018147052
            -1073692640 -1337917408 338710800 17055808</internalNodes>
          <leafValues>
            -4.1328918933868408e-01 1.3018700480461121e-01</leafValues></_>
        <_>
          <internalNodes>
            0 -1 345 -57817466 289795779 208415393 354236234 -2013154207
            -1785608339 -1268108989 365620983</internalNodes>
          <leafValues>
            -2.5941872596740723e-01 2.1646274626255035e-01</leafValues></_>
        <_>
          <internalNodes>
            0 -1 47 -4728137 -492600299 -588660455 -517866401 300238616
            1416724403 1243701799 -194532597</internalNodes>
          <leafValues>
            -1.5065285563468933e-01 3.8244408369064331e-01</leafValues></_>
        <_>
          <internalNodes>
            0 -1 42 -317669088 -516827685 1832028563 1454466360
            -800913232 -1120463469 -753595942 -176729257</internalNodes>
          <leafValues>
            -2.3415838181972504e-01 2.3496010899543762e-01</leafValues></_>
        <_>
          <internalNodes>
            0 -1 449 586121555 9680718 -1782328624 303037269 -2129414571
            412690565 197805567 -1899001345</internalNodes>
          <leafValues>
            -2.3324002325534821e-01 2.3216086626052856e-01</leafValues></_>
        <_>
          <internalNodes>
            0 -1 166 644203472 -1097105392 607218912 -1925646124
            816883418 -1866286544 -1340016486 9011867</internalNodes>
          <leafValues>
            -3.7385949492454529e-01 1.4470899105072021e-01</leafValues></_>
        <_>
          <internalNodes>
            0 -1 439 -216020514 -1543372568 -1610456943 68812930
            -1567952210 143163401 -89941717 -1971175288</internalNodes>
          <leafValues>
            -2.4462957680225372e-01 2.2461198270320892e-01</leafValues></_>
        <_>
          <internalNodes>
            0 -1 305 -256295854 427314320 -2085867363 -1314577013
            -1601913210 -1227617229 -1438478385 858754331</internalNodes>
          <leafValues>
            -2.1924521028995514e-01 2.3968286812305450e-01</leafValues></_>
        <_>
          <internalNodes>
            0 -1 177 -1631019303 1134084833 2099851994 2078160822
            963122386 -810748578 -1074824242 -11573162</internalNodes>
          <leafValues>
            -1.7121466994285583e-01 2.8241997957229614e-01</leafValues></_>
        <_>
          <internalNodes>
            0 -1 56 -98011648 694239242 1350729316 -632567281 957420114
            566320128 1511143239 1059324504</internalNodes>
          <leafValues>
            -3.7137532234191895e-01 1.2618763744831085e-01</leafValues></_>
        <_>
          <internalNodes>
            0 -1 284 806834268 859463991 1705443515 30412292 2056816206
            814684712 -1190257954 -2147428919</internalNodes>
          <leafValues>
            -2.6075926423072815e-01 1.9035638868808746e-01</leafValues></_>
        <_>
          <internalNodes>
            0 -1 290 -619842070 1771213014 536902040 1090703616
            402837025 -1152591790 53389476 76515743</internalNodes>
          <leafValues>
            -3.0615344643592834e-01 1.5932548046112061e-01</leafValues></_>
        <_>
          <internalNodes>
            0 -1 366 -671437352 -1788845324 -268369698 1035840827
            1006308580 192004251 681312294 797513663</internalNodes>
          <leafValues>
            -2.6904132962226868e-01 1.8065148591995239e-01</leafValues></_>
        <_>
          <internalNodes>
            0 -1 132 -1052454510 -1827554816 -1904793142 -539815599
            -668022120 1065031488 255067359 -39722833</internalNodes>
          <leafValues>
            -2.1549129486083984e-01 2.2773522138595581e-01</leafValues></_>
        <_>
          <internalNodes>
            0 -1 416 -449926896 -1711851472 1506429575 15686859
            -938950420 173477579 1519492922 27721750</internalNodes>
          <leafValues>
            -3.2139381766319275e-01 1.5380592644214630e-01</leafValues></_>
        <_>
          <internalNodes>
            0 -1 454 21727194 543121561 268730825 21433049 722106581
            135135241 -1559804537 1120912847</internalNodes>
          <leafValues>
            -2.5150331854820251e-01 1.9581882655620575e-01</leafValues></_>
        <_>
          <internalNodes>
            0 -1 93 -30084216 -125178832 1712152712 -11224211 72430096
            1471873395 1903048217 -103277012</internalNodes>
          <leafValues>
            -3.0469807982444763e-01 1.5829154849052429e-01</leafValues></_></weakClassifiers></_>
    <!-- stage 9 -->
    <_>
      <maxWeakCount>26</maxWeakCount>
      <stageThreshold>-1.1807733774185181e+00</stageThreshold>
      <weakClassifiers>
        <_>
          <internalNodes>
            0 -1 86 -12068525 1063534999 945904985 -604088729 -366759765
            -410403639 1210047194 1999569823</internalNodes>
          <leafValues>
            -4.0553906559944153e-01 3.6596524715423584e-01</leafValues></_>
        <_>
          <internalNodes>
            0 -1 74 590545843 1570447831 862126355 -140962925 16410075
            1069220567 44200123 1006584054</internalNodes>
          <leafValues>
            -3.2417619228363037e-01 2.9488837718963623e-01</leafValues></_>
        <_>
          <internalNodes>
            0 -1 39 -514395909 -405637741 -410254090 -61294147
            -469077205 -359058517 2111468539 -101220609</internalNodes>
          <leafValues>
            -2.7191898226737976e-01 2.8342223167419434e-01</leafValues></_>
        <_>
          <internalNodes>
            0 -1 443 -1109409129 144507547 -1878900734 -2133194624
            1611760156 541982882 -750312961 717424311</internalNodes>
          <leafValues>
            -3.2853171229362488e-01 2.5326198339462280e-01</leafValues></_>
        <_>
          <internalNodes>
            0 -1 14 -337579041 -169353897 1330599006 -9979942
            -2078232420 -2880832 2111024 -184068783</internalNodes>
          <leafValues>
            -2.7097332477569580e-01 2.3819313943386078e-01</leafValues></_>
        <_>
          <internalNodes>
            0 -1 260 -1656104256 -683726064 -792005081 -787934731
            -640756586 -648441800 689022607 933060832</internalNodes>
          <leafValues>
            -3.7850195169448853e-01 1.3132184743881226e-01</leafValues></_>
        <_>
          <internalNodes>
            0 -1 340 1355466758 1384579264 152305747 272763302
            -305805082 3148105 -376766068 3096998</internalNodes>
          <leafValues>
            -3.9226511120796204e-01 1.7189292609691620e-01</leafValues></_>
        <_>
          <internalNodes>
            0 -1 67 -246472704 1142104104 -1873739743 1246175359
            491129088 -1320869500 -1572464344 -213421813</internalNodes>
          <leafValues>
            -2.6254794001579285e-01 2.2519753873348236e-01</leafValues></_>
        <_>
          <internalNodes>
            0 -1 226 -352353520 -1858010608 359946688 1527986180
            -208208383 -1793585848 -1731581800 278666</internalNodes>
          <leafValues>
            -3.4100192785263062e-01 1.4902216196060181e-01</leafValues></_>
        <_>
          <internalNodes>
            0 -1 407 -2135979125 789414081 1402439636 229426278
            429519324 644719564 735288559 -1627527891</internalNodes>
          <leafValues>
            -2.3318563401699066e-01 2.2162634134292603e-01</leafValues></_>
        <_>
          <internalNodes>
            0 -1 456 42614978 49095157 1358954843 542703886 1087050249
            42631336 -1463395333 -1364262177</internalNodes>
          <leafValues>
            -2.5894999504089355e-01 2.0898969471454620e-01</leafValues></_>
        <_>
          <internalNodes>
            0 -1 156 -819879790 -696021912 582159846 -583906341
            -312745150 -1812780926 -366192470 -1347468297</internalNodes>
          <leafValues>
            -2.3153997957706451e-01 2.1819052100181580e-01</leafValues></_>
        <_>
          <internalNodes>
            0 -1 43 -209848889 898924736 1613865761 1747868846
            -216321792 492568582 1593990218 1383816351</internalNodes>
          <leafValues>
            -2.2409701347351074e-01 2.1572346985340118e-01</leafValues></_>
        <_>
          <internalNodes>
            0 -1 388 -603989946 -243831786 -719240355 268981123
            -749073846 -348250510 1826029519 -2135716198</internalNodes>
          <leafValues>
            -2.0357351005077362e-01 2.3449115455150604e-01</leafValues></_>
        <_>
          <internalNodes>
            0 -1 193 -243264772 -78940032 493942611 -142526435
            -107163500 -1884681024 -1845168677 -620543477</internalNodes>
          <leafValues>
            -2.0133243501186371e-01 2.3928906023502350e-01</leafValues></_>
        <_>
          <internalNodes>
            0 -1 248 -134596360 -1648838012 -1532349175 2000405250
            1020268716 -1238067749 988840586 -1358810741</internalNodes>
          <leafValues>
            -1.4636667072772980e-01 3.1952568888664246e-01</leafValues></_>
        <_>
          <internalNodes>
            0 -1 32 924176340 255981395 -1192100909 -1948795425
            218131400 -508538666 -885897572 -1171049097</internalNodes>
          <leafValues>
            -2.0562998950481415e-01 2.3056083917617798e-01</leafValues></_>
        <_>
          <internalNodes>
            0 -1 228 353738788 1949866559 69873418 1712267588 -229602740
            420029103 42009123 1042235047</internalNodes>
          <leafValues>
            -4.1401726007461548e-01 1.1822179704904556e-01</leafValues></_>
        <_>
          <internalNodes>
            0 -1 186 -213727495 1971166892 869294319 1057956033
            -1282610004 -105176888 -1866920997 -1156709327</internalNodes>
          <leafValues>
            -1.4176151156425476e-01 3.5264009237289429e-01</leafValues></_>
        <_>
          <internalNodes>
            0 -1 144 -1970660480 -581662452 -922115772 -679263919
            1770037760 -1460879208 -2104897138 67800218</internalNodes>
          <leafValues>
            -2.7711758017539978e-01 1.7232838273048401e-01</leafValues></_>
        <_>
          <internalNodes>
            0 -1 191 607406808 -1845570354 -921951138 60584955
            1910182979 -1292801437 -1094034802 1388596773</internalNodes>
          <leafValues>
            -3.3072862029075623e-01 1.3563323020935059e-01</leafValues></_>
        <_>
          <internalNodes>
            0 -1 0 -35655024 -248184760 1510052241 -660795264 -251443184
            444663808 1212153860 -1221393855</internalNodes>
          <leafValues>
            -2.3170170187950134e-01 1.9542360305786133e-01</leafValues></_>
        <_>
          <internalNodes>
            0 -1 423 -509275928 1459069333 -855601142 187155675
            -1546671478 -1571648904 77755579 31181566</internalNodes>
          <leafValues>
            -2.2872430086135864e-01 2.0288607478141785e-01</leafValues></_>
        <_>
          <internalNodes>
            0 -1 94 2066280482 1519593636 -1978595832 1596448512
            290521107 -775854552 1881412379 1942585121</internalNodes>
          <leafValues>
            -3.4465864300727844e-01 1.3923776149749756e-01</leafValues></_>
        <_>
          <internalNodes>
            0 -1 131 -788251120 321127764 826776457 -778301423
            1107821452 1307100296 2141348379 346818656</internalNodes>
          <leafValues>
            -3.4149026870727539e-01 1.3229571282863617e-01</leafValues></_>
        <_>
          <internalNodes>
            0 -1 359 -2118219591 905877692 251429233 527242538 471449599
            277513452 526839433 -1346460445</internalNodes>
          <leafValues>
            -1.9315543770790100e-01 2.5926455855369568e-01</leafValues></_></weakClassifiers></_>
    <!-- stage 10 -->
    <_>
      <maxWeakCount>24</maxWeakCount>
      <stageThreshold>-1.2356574535369873e+00</stageThreshold>
      <weakClassifiers>
        <_>
          <internalNodes>
            0 -1 38 -78144765 -1156996662 845152265 -1066517691
            1393635363 1330778415 324481071 1945576274</internalNodes>
          <leafValues>
            -2.2742079198360443e-01 4.5127812027931213e-01</leafValues></_>
        <_>
          <internalNodes>
            0 -1 106 -139012129 -1224752841 871314431 -2308893
            -693653214 -1140955070 -833388618 -35946729</internalNodes>
          <leafValues>
            -2.6633018255233765e-01 3.6229953169822693e-01</leafValues></_>
        <_>
          <internalNodes>
            0 -1 151 591204569 867505389 670179435 1034470844 127441085
            515432680 -72773393 -1113809178</internalNodes>
          <leafValues>
            -2.9569008946418762e-01 2.7566841244697571e-01</leafValues></_>
        <_>
          <internalNodes>
            0 -1 413 -437393289 1361549952 1208025915 546062336
            -229724115 1414942034 -542478170 4423850</internalNodes>
          <leafValues>
            -3.3746019005775452e-01 2.2958520054817200e-01</leafValues></_>
        <_>
          <internalNodes>
            0 -1 452 549126899 182325452 69831 320809045 178392055
            45023432 -2078294289 -295702049</internalNodes>
          <leafValues>
            -3.1881660223007202e-01 2.0215372741222382e-01</leafValues></_>
        <_>
          <internalNodes>
            0 -1 122 1458717145 -274775344 285334841 1963511128
            579374036 -1282322429 947957439 2000769571</internalNodes>
          <leafValues>
            -3.1021419167518616e-01 2.2887720167636871e-01</leafValues></_>
        <_>
          <internalNodes>
            0 -1 62 -143175343 1532067955 1889534473 320326971 894586955
            1361052192 844846827 1040477770</internalNodes>
          <leafValues>
            -2.8740352392196655e-01 2.2647874057292938e-01</leafValues></_>
        <_>
          <internalNodes>
            0 -1 322 -844572536 -1981046621 -990199659 286261424
            -611721044 478216327 -2118520162 457018777</internalNodes>
          <leafValues>
            -3.1478592753410339e-01 2.0331564545631409e-01</leafValues></_>
        <_>
          <internalNodes>
            0 -1 103 487169308 -75038398 -1693874048 -1187445352
            -82581268 -1152645114 -2146565928 4490497</internalNodes>
          <leafValues>
            -2.7827721834182739e-01 1.9579789042472839e-01</leafValues></_>
        <_>
          <internalNodes>
            0 -1 300 997675317 357053705 1467887901 1040126389 976132282
            274927754 772429471 165154968</internalNodes>
          <leafValues>
            -2.0706173777580261e-01 2.6440697908401489e-01</leafValues></_>
        <_>
          <internalNodes>
            0 -1 145 -257691326 -44982498 -416343288 1493198420
            -1071833384 -385346805 -2145861490 -916943334</internalNodes>
          <leafValues>
            -2.0662817358970642e-01 2.6813060045242310e-01</leafValues></_>
        <_>
          <internalNodes>
            0 -1 261 -1742188332 -652704680 1558450387 1566152857
            -633300818 -393195456 -1767331121 319511227</internalNodes>
          <leafValues>
            -2.1336728334426880e-01 2.5600031018257141e-01</leafValues></_>
        <_>
          <internalNodes>
            0 -1 155 1484813960 541237392 1078746974 1682019344
            987928196 -694501176 933644936 1961837195</internalNodes>
          <leafValues>
            -3.5698699951171875e-01 1.4388516545295715e-01</leafValues></_>
        <_>
          <internalNodes>
            0 -1 293 1594391802 -788250492 -1660563318 -780021303
            -266564406 -1845125104 403221179 -1692157829</internalNodes>
          <leafValues>
            -1.9634009897708893e-01 2.7963471412658691e-01</leafValues></_>
        <_>
          <internalNodes>
            0 -1 9 -237922084 -48754190 285908984 -49872803 1242054848
            -2096920528 -971898864 -734715824</internalNodes>
          <leafValues>
            -2.4681733548641205e-01 2.2244058549404144e-01</leafValues></_>
        <_>
          <internalNodes>
            0 -1 268 -668679944 -719508478 1726112727 2099246875
            -1066628468 -668969788 -1605311525 -551842837</internalNodes>
          <leafValues>
            -1.3593229651451111e-01 4.6220824122428894e-01</leafValues></_>
        <_>
          <internalNodes>
            0 -1 202 109765960 -148815594 1224528695 1760788500
            1754641317 996981789 -1904751478 751643055</internalNodes>
          <leafValues>
            -3.6105525493621826e-01 1.5474621951580048e-01</leafValues></_>
        <_>
          <internalNodes>
            0 -1 439 -108333870 -267861353 -2130657130 -1572593270
            -629094262 -2147381239 -1711083585 -355286906</internalNodes>
          <leafValues>
            -2.2015194594860077e-01 2.4773749709129333e-01</leafValues></_>
        <_>
          <internalNodes>
            0 -1 317 -799620402 -653066214 -530295944 539117580
            -1316978515 -1789175735 -606786626 317687951</internalNodes>
          <leafValues>
            -2.8973904252052307e-01 1.7840623855590820e-01</leafValues></_>
        <_>
          <internalNodes>
            0 -1 98 -162813696 -104101694 -2045765977 -586384630
            1913192962 1797740549 1896765247 -1279427742</internalNodes>
          <leafValues>
            -2.8206968307495117e-01 1.9187673926353455e-01</leafValues></_>
        <_>
          <internalNodes>
            0 -1 209 -746583848 -120571376 1911077847 -586561667
            -465244676 -80161643 -1143161637 -880169781</internalNodes>
          <leafValues>
            -1.3471701741218567e-01 4.3225240707397461e-01</leafValues></_>
        <_>
          <internalNodes>
            0 -1 409 -678492418 -85566436 -1092428559 -635271472
            -1398075410 -1896858348 560959146 -2012830514</internalNodes>
          <leafValues>
            -2.0221902430057526e-01 2.5956702232360840e-01</leafValues></_>
        <_>
          <internalNodes>
            0 -1 298 1553122008 1412497472 541609989 522138825 33616586
            -1708515191 319297943 420872462</internalNodes>
          <leafValues>
            -2.6659616827964783e-01 1.9198115170001984e-01</leafValues></_>
        <_>
          <internalNodes>
            0 -1 426 -1455321080 570900807 -1735743129 1031966719
            186778062 214952335 63587641 -1597534481</internalNodes>
          <leafValues>
            -2.7597257494926453e-01 1.8752077221870422e-01</leafValues></_></weakClassifiers></_>
    <!-- stage 11 -->
    <_>
      <maxWeakCount>30</maxWeakCount>
      <stageThreshold>-1.2633438110351563e+00</stageThreshold>
      <weakClassifiers>
        <_>
          <internalNodes>
            0 -1 149 296948153 1037898493 -1619029825 -2014635160
            150905051 989801707 -77620226 -33554467</internalNodes>
          <leafValues>
            -1.6035455465316772e-01 4.4821906089782715e-01</leafValues></_>
        <_>
          <internalNodes>
            0 -1 20 -795112705 -2059443297 -2019594529 1771920383
            -346900568 -1360532395 -328094240 -579732715</internalNodes>
          <leafValues>
            -2.7296370267868042e-01 2.6989763975143433e-01</leafValues></_>
        <_>
          <internalNodes>
            0 -1 396 -1424257557 171696779 89624797 358076543
            -2099380001 246181055 -1855003393 -1946184513</internalNodes>
          <leafValues>
            -2.6778975129127502e-01 2.9168894886970520e-01</leafValues></_>
        <_>
          <internalNodes>
            0 -1 408 -72897312 -666202106 -2146058148 -2144858108
            -1297503992 -803078144 -787938824 -1607795574</internalNodes>
          <leafValues>
            -2.6022437214851379e-01 2.3619928956031799e-01</leafValues></_>
        <_>
          <internalNodes>
            0 -1 230 -800566336 1435521024 906036253 365238721
            -2004313366 -2130706400 536919019 541264138</internalNodes>
          <leafValues>
            -3.2917055487632751e-01 1.5806661546230316e-01</leafValues></_>
        <_>
          <internalNodes>
            0 -1 64 1966233363 853115824 1192301941 1329384528
            1057043059 1542791698 1331831551 2051235138</internalNodes>
          <leafValues>
            -3.0736708641052246e-01 2.0196756720542908e-01</leafValues></_>
        <_>
          <internalNodes>
            0 -1 443 -1042291517 -1286930321 302415874 550046813
            -1937681761 -821751230 -1008909117 229608127</internalNodes>
          <leafValues>
            -2.5032034516334534e-01 2.2182418406009674e-01</leafValues></_>
        <_>
          <internalNodes>
            0 -1 219 -784279408 1497628868 18214938 -1660434227
            -1340831319 975732920 -1995330821 680135324</internalNodes>
          <leafValues>
            -2.6872184872627258e-01 1.9294251501560211e-01</leafValues></_>
        <_>
          <internalNodes>
            0 -1 278 -802924328 -644204031 1051936370 890069121
            -1341857880 -2147442484 -1151291653 -1425847557</internalNodes>
          <leafValues>
            -1.4702285826206207e-01 3.4769523143768311e-01</leafValues></_>
        <_>
          <internalNodes>
            0 -1 5 -8521993 -757352913 -911937069 -498864806 -768351535
            -1017919996 -1480379259 -749252249</internalNodes>
          <leafValues>
            -1.7060330510139465e-01 2.9514807462692261e-01</leafValues></_>
        <_>
          <internalNodes>
            0 -1 154 -1972400608 -812621551 11738750 -93756665 407142976
            715989917 -563269969 1861953535</internalNodes>
          <leafValues>
            -3.7130084633827209e-01 1.5954297780990601e-01</leafValues></_>
        <_>
          <internalNodes>
            0 -1 266 -139686720 -5722224 1073407228 -138727734
            -1519287076 -1449566722 -1799847718 -1146415989</internalNodes>
          <leafValues>
            -1.5992233157157898e-01 3.6860767006874084e-01</leafValues></_>
        <_>
          <internalNodes>
            0 -1 367 -251467558 -83071006 922379440 -1858492475
            -1654823924 72671215 784307930 -607163201</internalNodes>
          <leafValues>
            -1.2578892707824707e-01 3.8297671079635620e-01</leafValues></_>
        <_>
          <internalNodes>
            0 -1 347 -259473274 -794816880 -1091158431 -249693072
            -291262770 -696494266 -1175400758 -1297373473</internalNodes>
          <leafValues>
            -1.3599237799644470e-01 3.5751152038574219e-01</leafValues></_>
        <_>
          <internalNodes>
            0 -1 320 -363281784 -1656575360 -1054755671 278159402
            269669248 25412656 675392154 95150843</internalNodes>
          <leafValues>
            -3.3640074729919434e-01 1.5267939865589142e-01</leafValues></_>
        <_>
          <internalNodes>
            0 -1 399 1154646775 64948384 51452249 194597995 547547274
            1228450362 1132577023 458991723</internalNodes>
          <leafValues>
            -2.3636157810688019e-01 2.0676091313362122e-01</leafValues></_>
        <_>
          <internalNodes>
            0 -1 231 1426621576 323326672 903098384 2107111313 521666778
            461441664 908068538 1956075987</internalNodes>
          <leafValues>
            -3.1697902083396912e-01 1.6376964747905731e-01</leafValues></_>
        <_>
          <internalNodes>
            0 -1 54 -337677822 -789348181 1958371443 -314391794
            369832210 842203912 1098274314 -144441925</internalNodes>
          <leafValues>
            -2.1675127744674683e-01 2.3418386280536652e-01</leafValues></_>
        <_>
          <internalNodes>
            0 -1 391 1445521472 353723133 109693506 57531911 1209419818
            149160777 -2133777286 690331605</internalNodes>
          <leafValues>
            -3.1940183043479919e-01 1.4966571331024170e-01</leafValues></_>
        <_>
          <internalNodes>
            0 -1 259 -657614632 -48692918 -66416056 -1392733357
            412932822 -63829108 -1024736561 143564447</internalNodes>
          <leafValues>
            -2.8993946313858032e-01 1.5751476585865021e-01</leafValues></_>
        <_>
          <internalNodes>
            0 -1 453 -1600468784 42074261 -1862250157 30410790
            -1738882944 134610946 279613871 -1276164929</internalNodes>
          <leafValues>
            -2.2344730794429779e-01 2.1648779511451721e-01</leafValues></_>
        <_>
          <internalNodes>
            0 -1 315 -256638458 -707512122 1621399496 8829342 810648736
            242614546 -929569084 537045834</internalNodes>
          <leafValues>
            -3.6219733953475952e-01 1.2530225515365601e-01</leafValues></_>
        <_>
          <internalNodes>
            0 -1 275 -1040843091 -745063774 536905907 -1746947927
            -1158108944 1051362739 1736699599 -1610875973</internalNodes>
          <leafValues>
            -1.7401111125946045e-01 2.8480616211891174e-01</leafValues></_>
        <_>
          <internalNodes>
            0 -1 19 197162383 -543452512 190418831 1037976017 1296087704
            -1078882147 1038407564 1996972132</internalNodes>
          <leafValues>
            -2.2863067686557770e-01 2.1382273733615875e-01</leafValues></_>
        <_>
          <internalNodes>
            0 -1 349 -586954502 1435075784 -1876821943 1359961807
            -983528373 1611302077 -539272449 -1684278529</internalNodes>
          <leafValues>
            -1.6184738278388977e-01 3.1923320889472961e-01</leafValues></_>
        <_>
          <internalNodes>
            0 -1 256 -43003748 -595063422 1811877521 -216813852
            -1770781288 1964478422 -1145403430 -73693494</internalNodes>
          <leafValues>
            -1.2783369421958923e-01 3.8446086645126343e-01</leafValues></_>
        <_>
          <internalNodes>
            0 -1 1 -150219376 -762459936 -1874505633 -540159689
            570929792 -922734592 419434768 538124320</internalNodes>
          <leafValues>
            -2.8087824583053589e-01 1.6643604636192322e-01</leafValues></_>
        <_>
          <internalNodes>
            0 -1 234 -184420136 971505868 -1946085043 233168653
            -1996446805 -628719394 103333194 -13797330</internalNodes>
          <leafValues>
            -1.6216693818569183e-01 2.8091129660606384e-01</leafValues></_>
        <_>
          <internalNodes>
            0 -1 386 -200695680 396851752 -621072328 -1851189574
            -1662204739 1903984509 1148920510 -1683249767</internalNodes>
          <leafValues>
            -1.7661166191101074e-01 2.7289783954620361e-01</leafValues></_>
        <_>
          <internalNodes>
            0 -1 130 1900781698 -19437535 292822545 -632858289
            1128923148 1895842308 587015663 1382482827</internalNodes>
          <leafValues>
            -2.7277776598930359e-01 1.7886674404144287e-01</leafValues></_></weakClassifiers></_>
    <!-- stage 12 -->
    <_>
      <maxWeakCount>25</maxWeakCount>
      <stageThreshold>-1.2248830795288086e+00</stageThreshold>
      <weakClassifiers>
        <_>
          <internalNodes>
            0 -1 245 325749347 162267455 299892984 165552857 -1326735116
            465348925 -726165263 -1111783128</internalNodes>
          <leafValues>
            -2.5624454021453857e-01 4.0463489294052124e-01</leafValues></_>
        <_>
          <internalNodes>
            0 -1 11 939230662 1537149454 -689394366 1925488042
            1076142592 -536313600 1348562944 1366782464</internalNodes>
          <leafValues>
            -4.8064193129539490e-01 1.8773330748081207e-01</leafValues></_>
        <_>
          <internalNodes>
            0 -1 398 138603003 119343313 -2097034925 368382361
            1737208303 146409658 212235691 197117387</internalNodes>
          <leafValues>
            -2.6076337695121765e-01 2.8993579745292664e-01</leafValues></_>
        <_>
          <internalNodes>
            0 -1 210 -53159720 -679351663 -2063597169 -174069732
            -1027268375 -1717730774 -565648417 2107077077</internalNodes>
          <leafValues>
            -3.3567216992378235e-01 2.1264344453811646e-01</leafValues></_>
        <_>
          <internalNodes>
            0 -1 411 -783034545 -643837693 1396921332 -1073741744
            -590630965 -127634814 -446242949 1625002</internalNodes>
          <leafValues>
            -2.9534229636192322e-01 2.1343849599361420e-01</leafValues></_>
        <_>
          <internalNodes>
            0 -1 17 1208265402 -478030249 138428915 1617549855 268677234
            -1256246249 -248818671 -802996621</internalNodes>
          <leafValues>
            -3.5689628124237061e-01 1.7458018660545349e-01</leafValues></_>
        <_>
          <internalNodes>
            0 -1 247 -234300286 -559773774 586296192 -1323496784
            -585443696 -1987543244 -1394205030 -1154808662</internalNodes>
          <leafValues>
            -1.9505673646926880e-01 3.6599630117416382e-01</leafValues></_>
        <_>
          <internalNodes>
            0 -1 356 -653993260 -653490040 138937353 -639680495
            -2130671413 1486890674 -763702291 1807548619</internalNodes>
          <leafValues>
            -1.9765800237655640e-01 3.0441001057624817e-01</leafValues></_>
        <_>
          <internalNodes>
            0 -1 170 -985603944 -66050395 -1291573192 -644540672
            -2113758468 -877550591 303087867 -619642837</internalNodes>
          <leafValues>
            -2.0843143761157990e-01 2.8881257772445679e-01</leafValues></_>
        <_>
          <internalNodes>
            0 -1 229 -786234190 -5538902 -1459673352 -75778496
            -440433251 -1649131728 -1360129650 -82902901</internalNodes>
          <leafValues>
            -1.3286660611629486e-01 4.4647911190986633e-01</leafValues></_>
        <_>
          <internalNodes>
            0 -1 265 -61304640 -586379904 587202494 -1649461648
            -1481864040 -2043728628 -2132738390 -1148484598</internalNodes>
          <leafValues>
            -1.4292211830615997e-01 4.0475419163703918e-01</leafValues></_>
        <_>
          <internalNodes>
            0 -1 277 -172305214 -538396032 2008999048 297087328
            -1124230006 -1925179692 -1285128053 -1693768566</internalNodes>
          <leafValues>
            -1.4764226973056793e-01 4.2833158373832703e-01</leafValues></_>
        <_>
          <internalNodes>
            0 -1 325 -751186784 -686805184 2113693700 -1288360536
            -1245903732 -1208689388 -1672291142 -83149365</internalNodes>
          <leafValues>
            -1.3929571211338043e-01 4.1657432913780212e-01</leafValues></_>
        <_>
          <internalNodes>
            0 -1 40 -238585341 -2129797265 -2146941741 -503251820
            953963479 -1904119365 -1170198655 1873768122</internalNodes>
          <leafValues>
            -3.0537045001983643e-01 2.0623758435249329e-01</leafValues></_>
        <_>
          <internalNodes>
            0 -1 428 -938348350 8448074 17616993 256754955 -1286428470
            5410820 -787359597 219013273</internalNodes>
          <leafValues>
            -3.0267590284347534e-01 1.8515935540199280e-01</leafValues></_>
        <_>
          <internalNodes>
            0 -1 292 -799377700 -574080888 1652837528 495292645
            -1466256710 -295923149 17479738 -2004620357</internalNodes>
          <leafValues>
            -2.4242179095745087e-01 2.3656228184700012e-01</leafValues></_>
        <_>
          <internalNodes>
            0 -1 55 -245420030 1948397570 187237424 330766139 1362436866
            1416893813 536875882 -216172685</internalNodes>
          <leafValues>
            -2.2387205064296722e-01 2.5788542628288269e-01</leafValues></_>
        <_>
          <internalNodes>
            0 -1 332 -645868040 -1769983756 117489665 399185907
            719372314 377634980 328276790 800012795</internalNodes>
          <leafValues>
            -2.6555189490318298e-01 2.1684506535530090e-01</leafValues></_>
        <_>
          <internalNodes>
            0 -1 378 1390624986 -247483392 10535685 50531414 -388702080
            284034634 -1475452245 1897654235</internalNodes>
          <leafValues>
            -2.2500205039978027e-01 2.4715133011341095e-01</leafValues></_>
        <_>
          <internalNodes>
            0 -1 159 -1876899200 -719094112 -1342194075 2013214403
            -965811072 -986253484 -1524844374 -74480630</internalNodes>
          <leafValues>
            -1.3940854370594025e-01 3.9728266000747681e-01</leafValues></_>
        <_>
          <internalNodes>
            0 -1 203 -738289424 1431610659 1997373568 1912408524
            -1591367092 353274270 480546262 864326639</internalNodes>
          <leafValues>
            -3.5930964350700378e-01 1.6279631853103638e-01</leafValues></_>
        <_>
          <internalNodes>
            0 -1 314 -595487340 287379048 989485792 321119193
            -1611101044 18152828 -174025526 -74512952</internalNodes>
          <leafValues>
            -1.5797394514083862e-01 3.3842951059341431e-01</leafValues></_>
        <_>
          <internalNodes>
            0 -1 406 -207058288 -630707054 1860353045 -266205143
            -2130774848 -2078230667 -1627681622 -1842731446</internalNodes>
          <leafValues>
            -2.1147455275058746e-01 2.7093476057052612e-01</leafValues></_>
        <_>
          <internalNodes>
            0 -1 301 -345250854 -946886484 -839788467 -203050202
            -796210263 -514187262 -209982590 -405806881</internalNodes>
          <leafValues>
            -1.6735573112964630e-01 3.3285826444625854e-01</leafValues></_>
        <_>
          <internalNodes>
            0 -1 279 -1870651752 -1794516792 262722 -1652256111
            -796331925 -1300217656 -220026181 34556575</internalNodes>
          <leafValues>
            -3.0918416380882263e-01 1.8580129742622375e-01</leafValues></_></weakClassifiers></_>
    <!-- stage 13 -->
    <_>
      <maxWeakCount>19</maxWeakCount>
      <stageThreshold>-1.3260841369628906e+00</stageThreshold>
      <weakClassifiers>
        <_>
          <internalNodes>
            0 -1 91 -1093298797 -21006062 -1216824616 -1354827401
            -944426221 -1275198483 968295099 -75608137</internalNodes>
          <leafValues>
            -2.0312266051769257e-01 4.2985045909881592e-01</leafValues></_>
        <_>
          <internalNodes>
            0 -1 430 -2060470230 47960065 143725650 600783061 264601807
            21602944 -1534096257 1604306430</internalNodes>
          <leafValues>
            -3.5382953286170959e-01 3.0410015583038330e-01</leafValues></_>
        <_>
          <internalNodes>
            0 -1 123 -223887214 -211141424 732694161 1398884384
            -2125846520 147860789 -1032187254 -1307949822</internalNodes>
          <leafValues>
            -2.3271651566028595e-01 3.9329659938812256e-01</leafValues></_>
        <_>
          <internalNodes>
            0 -1 71 -667877101 1399787843 335578119 1532307546
            1660957186 277951026 1939349359 2072738351</internalNodes>
          <leafValues>
            -3.0327042937278748e-01 3.0180373787879944e-01</leafValues></_>
        <_>
          <internalNodes>
            0 -1 217 -2145135964 -83218832 737895559 2007853824
            -1805777792 1976057846 -1757117046 -1307632638</internalNodes>
          <leafValues>
            -2.6204669475555420e-01 3.3673825860023499e-01</leafValues></_>
        <_>
          <internalNodes>
            0 -1 437 -221264250 -757977566 754909209 -1334887824
            -1494252504 -2108360836 -2035108710 -1568013368</internalNodes>
          <leafValues>
            -2.2499100863933563e-01 3.7056976556777954e-01</leafValues></_>
        <_>
          <internalNodes>
            0 -1 445 -693205806 -623245654 1021715195 -2069322204
            -1124104989 4487167 375526535 -2102720877</internalNodes>
          <leafValues>
            -2.7305755019187927e-01 3.0205923318862915e-01</leafValues></_>
        <_>
          <internalNodes>
            0 -1 347 -234056814 -1306505594 787889667 1371614402
            -1397094684 360632068 -1837572945 -1576328190</internalNodes>
          <leafValues>
            -2.0436044037342072e-01 3.8510870933532715e-01</leafValues></_>
        <_>
          <internalNodes>
            0 -1 90 -792738622 -627904606 1730195112 1350239800
            -1602513408 -1540270267 -1871399870 -491825662</internalNodes>
          <leafValues>
            -2.6683676242828369e-01 2.9770746827125549e-01</leafValues></_>
        <_>
          <internalNodes>
            0 -1 175 806015034 -824917831 830477461 1964577153
            -1139252488 -779091808 271628527 135313</internalNodes>
          <leafValues>
            -3.9022651314735413e-01 2.1225090324878693e-01</leafValues></_>
        <_>
          <internalNodes>
            0 -1 425 -760227934 -1302192574 -1242317455 292501025
            -1744837492 -2001308316 -1963942001 -1565817154</internalNodes>
          <leafValues>
            -2.0114131271839142e-01 4.2785683274269104e-01</leafValues></_>
        <_>
          <internalNodes>
            0 -1 420 -210851326 -1306369004 -1275185151 1895425256
            -1263762304 747666878 -320303970 -2104541046</internalNodes>
          <leafValues>
            -2.0564454793930054e-01 3.5682737827301025e-01</leafValues></_>
        <_>
          <internalNodes>
            0 -1 438 -127741760 -1566441282 750269105 -1854567366
            -1821380202 679231359 900764868 -1701082084</internalNodes>
          <leafValues>
            -2.2090546786785126e-01 3.3386638760566711e-01</leafValues></_>
        <_>
          <internalNodes>
            0 -1 196 -215252814 -212103392 -462928211 -710052860
            -756055876 -671658170 -1507588694 -2109012958</internalNodes>
          <leafValues>
            -1.8177275359630585e-01 3.9956799149513245e-01</leafValues></_>
        <_>
          <internalNodes>
            0 -1 59 457602323 -1537709056 -469556305 629932418 57222706
            2028503723 1711307626 -691002463</internalNodes>
          <leafValues>
            -3.9372277259826660e-01 1.6720670461654663e-01</leafValues></_>
        <_>
          <internalNodes>
            0 -1 327 -801766206 -585429440 -1351717901 1906788448
            -1728191484 -2077464795 582417306 -1027659942</internalNodes>
          <leafValues>
            -1.8233329057693481e-01 3.8780361413955688e-01</leafValues></_>
        <_>
          <internalNodes>
            0 -1 271 -259812648 -684675512 736636532 -786350671
            -450068340 1423187935 20098298 -1624302437</internalNodes>
          <leafValues>
            -1.5852487087249756e-01 4.7431799769401550e-01</leafValues></_>
        <_>
          <internalNodes>
            0 -1 161 -1743433592 843654293 167901085 -281359464
            -1274901364 -398252910 -1556075956 1359200795</internalNodes>
          <leafValues>
            -3.4865412116050720e-01 2.3265329003334045e-01</leafValues></_>
        <_>
          <internalNodes>
            0 -1 328 -586104436 -788403950 806886592 420561921
            -1301995318 436453418 -837442869 66020303</internalNodes>
          <leafValues>
            -2.9678204655647278e-01 2.3932157456874847e-01</leafValues></_></weakClassifiers></_>
    <!-- stage 14 -->
    <_>
      <maxWeakCount>18</maxWeakCount>
      <stageThreshold>-9.1756165027618408e-01</stageThreshold>
      <weakClassifiers>
        <_>
          <internalNodes>
            0 -1 8 -1197622321 -756341363 304957443 585468815 772024096
            832184336 1963339779 2004292371</internalNodes>
          <leafValues>
            -2.5998082756996155e-01 4.3934667110443115e-01</leafValues></_>
        <_>
          <internalNodes>
            0 -1 397 -1198554958 -1971278304 849702124 -1689037616
            -1606810480 381030199 442895500 -1416952758</internalNodes>
          <leafValues>
            -2.5742498040199280e-01 4.2565542459487915e-01</leafValues></_>
        <_>
          <internalNodes>
            0 -1 198 -759822598 -1842698224 2059078848 -1809236304
            -797162368 1620342732 921195678 -1836107629</internalNodes>
          <leafValues>
            -2.2519150376319885e-01 4.3288719654083252e-01</leafValues></_>
        <_>
          <internalNodes>
            0 -1 352 -158350110 -1096678136 573965379 95880208 590480531
            1102187824 -1340046550 -1967173014</internalNodes>
          <leafValues>
            -3.0447635054588318e-01 3.4698274731636047e-01</leafValues></_>
        <_>
          <internalNodes>
            0 -1 190 -915930479 -1072971632 1212203158 -180608687
            -64453500 -1020919477 810130411 878125927</internalNodes>
          <leafValues>
            -5.5239897966384888e-01 2.0448590815067291e-01</leafValues></_>
        <_>
          <internalNodes>
            0 -1 252 -207370766 -683826127 917714346 2066430176
            -1773265760 613709812 812394184 -1156628445</internalNodes>
          <leafValues>
            -2.3783518373966217e-01 4.6809691190719604e-01</leafValues></_>
        <_>
          <internalNodes>
            0 -1 444 -202930458 -960336782 267979833 -1602085502
            -1404129144 851182605 -1865437469 -2112191866</internalNodes>
          <leafValues>
            -3.1073185801506042e-01 3.5175639390945435e-01</leafValues></_>
        <_>
          <internalNodes>
            0 -1 313 -794048110 -1280109516 1438198004 -784388064
            -1519659988 337018741 183766419 -2094332799</internalNodes>
          <leafValues>
            -1.8712124228477478e-01 5.4087233543395996e-01</leafValues></_>
        <_>
          <internalNodes>
            0 -1 299 -797079934 -2119484336 603600297 930554419
            -1737880144 -1401661578 -1967765349 -1364259805</internalNodes>
          <leafValues>
            -2.4615883827209473e-01 4.6757885813713074e-01</leafValues></_>
        <_>
          <internalNodes>
            0 -1 377 -87187454 -1234621120 -1364324025 -757003031
            -1782676278 -2096863724 -1406827125 -2099597358</internalNodes>
          <leafValues>
            -2.2395958006381989e-01 4.6884772181510925e-01</leafValues></_>
        <_>
          <internalNodes>
            0 -1 331 -88112998 -1230754064 -88166340 -1851325440
            -390181832 817246164 -1904932966 -1433697107</internalNodes>
          <leafValues>
            -2.2982418537139893e-01 4.8233142495155334e-01</leafValues></_>
        <_>
          <internalNodes>
            0 -1 76 -148240766 -1212609359 1056942745 -93487580
            -1579674592 545027669 54788951 -343206773</internalNodes>
          <leafValues>
            -2.7781012654304504e-01 4.0402847528457642e-01</leafValues></_>
        <_>
          <internalNodes>
            0 -1 364 -74536504 -207217472 216591666 -456847224
            -1406655223 -1054269866 -937255294 -301262582</internalNodes>
          <leafValues>
            -2.2454144060611725e-01 4.6159219741821289e-01</leafValues></_>
        <_>
          <internalNodes>
            0 -1 180 -268426624 -1295314808 268451857 1360986120
            -1433794560 134217728 17066 -958789632</internalNodes>
          <leafValues>
            -3.4854537248611450e-01 3.2989150285720825e-01</leafValues></_>
        <_>
          <internalNodes>
            0 -1 138 -1210345852 -1708032301 372907024 -2123675028
            -1737669612 276133684 825787074 -1951722357</internalNodes>
          <leafValues>
            -2.5131195783615112e-01 4.5192486047744751e-01</leafValues></_>
        <_>
          <internalNodes>
            0 -1 163 -106752358 -1844822112 -1363591756 -248820551
            -327351167 510818156 -848026494 -1148562268</internalNodes>
          <leafValues>
            -2.9058721661567688e-01 4.1048237681388855e-01</leafValues></_>
        <_>
          <internalNodes>
            0 -1 323 -124780378 -242078432 -295031195 -1191760347
            -1527577310 125599077 -1830536789 -1441069806</internalNodes>
          <leafValues>
            -2.3786319792270660e-01 4.4735956192016602e-01</leafValues></_>
        <_>
          <internalNodes>
            0 -1 236 436442144 -698341856 921971760 -64017824
            -1494473564 716971893 -1745717106 -1527839214</internalNodes>
          <leafValues>
            -3.0944472551345825e-01 3.7585610151290894e-01</leafValues></_></weakClassifiers></_>
    <!-- stage 15 -->
    <_>
      <maxWeakCount>40</maxWeakCount>
      <stageThreshold>-1.1470502614974976e+00</stageThreshold>
      <weakClassifiers>
        <_>
          <internalNodes>
            0 -1 60 1899434355 2138583543 637474807 -1345537 1933258968
            2142255100 1991252905 -17932373</internalNodes>
          <leafValues>
            -1.4822164177894592e-01 3.8938635587692261e-01</leafValues></_>
        <_>
          <internalNodes>
            0 -1 174 -581119059 -170297381 -782509985 -2706164
            -637155909 -3427865 -1165803521 2143230943</internalNodes>
          <leafValues>
            -2.5228324532508850e-01 2.2261178493499756e-01</leafValues></_>
        <_>
          <internalNodes>
            0 -1 2 -136579209 -161526825 -670570795 -1506573393
            -123525374 291709473 1395864321 1608990498</internalNodes>
          <leafValues>
