<?xml version="1.0"?>
<opencv_storage>
<stage4>
  <maxWeakCount>25</maxWeakCount>
  <stageThreshold>-1.2642172574996948e+00</stageThreshold>
  <weakClassifiers>
    <_>
      <internalNodes>
        0 -1 867 -2049 -40961 -56353 -1 -33606733 -536923344 -183489
        -51401</internalNodes>
      <leafValues>
        -2.8830137848854065e-01 5.5664408206939697e-01</leafValues></_>
    <_>
      <internalNodes>
        0 -1 7775 -525697 -67139347 2143269566 -1107361281 -12743729
        199983863 -222306341 -1342209281</internalNodes>
      <leafValues>
        -2.4389606714248657e-01 4.4564473628997803e-01</leafValues></_>
    <_>
      <internalNodes>
        0 -1 12330 -541073665 -762917502 1606098672 -1005944696
        -80019925 -857473964 -403728765 -2141142042</internalNodes>
      <leafValues>
        -2.5534778833389282e-01 3.4366121888160706e-01</leafValues></_>
    <_>
      <internalNodes>
        0 -1 552 -178826253 -211979053 2004809599 -13337730 321009306
        2141732810 1660743647 -4194849</internalNodes>
      <leafValues>
        -2.6683676242828369e-01 3.2530373334884644e-01</leafValues></_>
    <_>
      <internalNodes>
        0 -1 8027 -717140935 -1794258881 -2062771954 -1387453033
        -590968181 -1301616462 646159019 673425823</internalNodes>
      <leafValues>
        -3.1978970766067505e-01 2.2974814474582672e-01</leafValues></_>
    <_>
      <internalNodes>
        0 -1 12137 -2104764161 25028720 597672181 354391039 19849915
        35364524 197131983 -1610629121</internalNodes>
      <leafValues>
        -1.8749924004077911e-01 3.8954108953475952e-01</leafValues></_>
    <_>
      <internalNodes>
        0 -1 17 2132146682 -237638202 -54011953 -537011763 41985152
        -515477359 50417920 -150638331</internalNodes>
      <leafValues>
        -3.2449173927307129e-01 2.1048493683338165e-01</leafValues></_>
    <_>
      <internalNodes>
        0 -1 12179 -223229496 -132101052 -117938440 -1909840032
        -1937793812 -2125692988 -1531465749 -1968455329</internalNodes>
      <leafValues>
        -2.0411247014999390e-01 3.3935210108757019e-01</leafValues></_>
    <_>
      <internalNodes>
        0 -1 9434 1506675964 269714121 135397696 332991415 579066872
        672729809 -104413063 1069517260</internalNodes>
      <leafValues>
        -3.6252763867378235e-01 1.8938718736171722e-01</leafValues></_>
    <_>
      <internalNodes>
        0 -1 3981 -616951624 -208108068 528482777 -240631724 -1412278292
        -1334648752 864223946 1393819684</internalNodes>
      <leafValues>
        -3.0264115333557129e-01 2.2133435308933258e-01</leafValues></_>
    <_>
      <internalNodes>
        0 -1 5716 -1138484008 -572376704 341986440 -267027068 -885930808
        -624942976 822090377 541274128</internalNodes>
      <leafValues>
        -3.7016290426254272e-01 1.9156235456466675e-01</leafValues></_>
    <_>
      <internalNodes>
        0 -1 12041 -746082086 274724934 -2000829941 702081977
        -1050771296 527538455 -975316146 -741635890</internalNodes>
      <leafValues>
        -2.1369642019271851e-01 3.2181841135025024e-01</leafValues></_>
    <_>
      <internalNodes>
        0 -1 23 -211026053 -647500937 -1349781050 1601173375 -1486761173
        1361723955 388706318 -25723097</internalNodes>
      <leafValues>
        -1.9285112619400024e-01 3.3810460567474365e-01</leafValues></_>
    <_>
      <internalNodes>
        0 -1 12328 -234106382 -494251816 16924688 578945034 84461676
        -838074368 -1693496483 -2111520688</internalNodes>
      <leafValues>
        -3.1939277052879333e-01 2.1806760132312775e-01</leafValues></_>
    <_>
      <internalNodes>
        0 -1 7987 -1336903548 -176188400 1360315919 1364283601
        -1173856584 -64964480 -1308578866 140576955</internalNodes>
      <leafValues>
        -2.9904681444168091e-01 2.1252903342247009e-01</leafValues></_>
    <_>
      <internalNodes>
        0 -1 5374 -2054759213 1022992540 -468395006 -58226785 -32922462
        -935163872 1072097451 1035866139</internalNodes>
      <leafValues>
        -3.4410783648490906e-01 1.9565345346927643e-01</leafValues></_>
    <_>
      <internalNodes>
        0 -1 4619 825925819 872098645 95748369 120984893 -1442477633
        448439752 953028846 1300728812</internalNodes>
      <leafValues>
        -2.8956747055053711e-01 2.2856941819190979e-01</leafValues></_>
    <_>
      <internalNodes>
        0 -1 819 -232835582 -686739744 2124908887 -4759863 -1269144544
        608993060 -1564572757 -217367505</internalNodes>
      <leafValues>
        -1.9432803988456726e-01 3.4956857562065125e-01</leafValues></_>
    <_>
      <internalNodes>
        0 -1 11714 -201462325 904862439 -2069151605 1566933312
        -1202527718 -1141317548 1125483124 -144715033</internalNodes>
      <leafValues>
        -1.4730964601039886e-01 4.3293076753616333e-01</leafValues></_>
    <_>
      <internalNodes>
        0 -1 11969 -1731522422 -115780984 1162777408 469930065
        -2105229396 -266280952 -556042802 -1874686772</internalNodes>
      <leafValues>
        -2.6129350066184998e-01 2.4220216274261475e-01</leafValues></_>
    <_>
      <internalNodes>
        0 -1 10877 -901191674 1369051238 -1794704368 285303172
        -1676894054 875111072 -1446660813 10205131</internalNodes>
      <leafValues>
        -3.1368726491928101e-01 2.0010732114315033e-01</leafValues></_>
    <_>
      <internalNodes>
        0 -1 11177 -1011159838 1360191760 -935214112 1476943704
        -1061658198 1074790445 -2067165216 200505475</internalNodes>
      <leafValues>
        -3.2197979092597961e-01 1.9141119718551636e-01</leafValues></_>
    <_>
      <internalNodes>
        0 -1 9888 -689452928 -605933948 -353423695 -575705943 -668089330
        -1935151511 -625291605 -1550891816</internalNodes>
      <leafValues>
        -1.5617047250270844e-01 3.8862618803977966e-01</leafValues></_>
    <_>
      <internalNodes>
        0 -1 2448 -1877388525 2001822929 983675711 -680809417 908293626
        2046453872 1008886975 -1626770227</internalNodes>
      <leafValues>
        -1.9130936264991760e-01 3.2601305842399597e-01</leafValues></_>
    <_>
      <internalNodes>
        0 -1 8972 -640820136 1368228115 -2094146680 364875978 -256984350
        852258008 1602613239 -1987868298</internalNodes>
      <leafValues>
        -2.3036858439445496e-01 2.7232465147972107e-01</leafValues></_></weakClassifiers></stage4>
</opencv_storage>
