<?xml version="1.0"?>
<opencv_storage>
<stage8>
  <maxWeakCount>25</maxWeakCount>
  <stageThreshold>-1.2937850952148438e+00</stageThreshold>
  <weakClassifiers>
    <_>
      <internalNodes>
        0 -1 867 -140321 -343936553 -335571981 -67665 -596156133
        -1090571752 -1212214593 -33993</internalNodes>
      <leafValues>
        -1.9645187258720398e-01 4.9146831035614014e-01</leafValues></_>
    <_>
      <internalNodes>
        0 -1 7223 -135274881 -170950187 -744084809 -570455559 -29454353
        -1347649494 -147607329 -1073902593</internalNodes>
      <leafValues>
        -1.9452804327011108e-01 4.3768274784088135e-01</leafValues></_>
    <_>
      <internalNodes>
        0 -1 12137 42369194 135766032 -2124594543 755995459 -1479302725
        689078273 59759274 267381759</internalNodes>
      <leafValues>
        -3.8337811827659607e-01 2.1701234579086304e-01</leafValues></_>
    <_>
      <internalNodes>
        0 -1 11785 1989399803 -25116586 1135386509 -1845470100
        -1298143541 -13967314 -877695025 -1028982070</internalNodes>
      <leafValues>
        -2.1518667042255402e-01 3.5598379373550415e-01</leafValues></_>
    <_>
      <internalNodes>
        0 -1 788 1597326091 2041646692 -124187608 -1616698291 1932342323
        1058235242 856848155 -13149313</internalNodes>
      <leafValues>
        -2.8184103965759277e-01 2.3377072811126709e-01</leafValues></_>
    <_>
      <internalNodes>
        0 -1 4013 -1049667280 1530991904 -703598375 -1691313774
        -2004203784 -1400894448 -1867475876 65896</internalNodes>
      <leafValues>
        -3.1552365422248840e-01 2.1565309166908264e-01</leafValues></_>
    <_>
      <internalNodes>
        0 -1 4970 1091627085 -1572153136 1703948211 1859950450
        -1039736854 1038946122 713739979 68033115</internalNodes>
      <leafValues>
        -4.2986413836479187e-01 1.2579318881034851e-01</leafValues></_>
    <_>
      <internalNodes>
        0 -1 1547 1364398616 2000794737 890572888 1821131868 1094845082
        749241484 1477266126 1473929737</internalNodes>
      <leafValues>
        -3.3261370658874512e-01 1.8672487139701843e-01</leafValues></_>
    <_>
      <internalNodes>
        0 -1 10 -78949414 -2960678 -1052060534 -1018147052 -1073692640
        -1337917408 338710800 17055808</internalNodes>
      <leafValues>
        -4.1328918933868408e-01 1.3018700480461121e-01</leafValues></_>
    <_>
      <internalNodes>
        0 -1 10580 -57817466 289795779 208415393 354236234 -2013154207
        -1785608339 -1268108989 365620983</internalNodes>
      <leafValues>
        -2.5941872596740723e-01 2.1646274626255035e-01</leafValues></_>
    <_>
      <internalNodes>
        0 -1 472 -4728137 -492600299 -588660455 -517866401 300238616
        1416724403 1243701799 -194532597</internalNodes>
      <leafValues>
        -1.5065285563468933e-01 3.8244408369064331e-01</leafValues></_>
    <_>
      <internalNodes>
        0 -1 299 -317669088 -516827685 1832028563 1454466360 -800913232
        -1120463469 -753595942 -176729257</internalNodes>
      <leafValues>
        -2.3415838181972504e-01 2.3496010899543762e-01</leafValues></_>
    <_>
      <internalNodes>
        0 -1 12400 586121555 9680718 -1782328624 303037269 -2129414571
        412690565 197805567 -1899001345</internalNodes>
      <leafValues>
        -2.3324002325534821e-01 2.3216086626052856e-01</leafValues></_>
    <_>
      <internalNodes>
        0 -1 5486 644203472 -1097105392 607218912 -1925646124 816883418
        -1866286544 -1340016486 9011867</internalNodes>
      <leafValues>
        -3.7385949492454529e-01 1.4470899105072021e-01</leafValues></_>
    <_>
      <internalNodes>
        0 -1 12328 -216020514 -1543372568 -1610456943 68812930
        -1567952210 143163401 -89941717 -1971175288</internalNodes>
      <leafValues>
        -2.4462957680225372e-01 2.2461198270320892e-01</leafValues></_>
    <_>
      <internalNodes>
        0 -1 9789 -256295854 427314320 -2085867363 -1314577013
        -1601913210 -1227617229 -1438478385 858754331</internalNodes>
      <leafValues>
        -2.1924521028995514e-01 2.3968286812305450e-01</leafValues></_>
    <_>
      <internalNodes>
        0 -1 5712 -1631019303 1134084833 2099851994 2078160822 963122386
        -810748578 -1074824242 -11573162</internalNodes>
      <leafValues>
        -1.7121466994285583e-01 2.8241997957229614e-01</leafValues></_>
    <_>
      <internalNodes>
        0 -1 605 -98011648 694239242 1350729316 -632567281 957420114
        566320128 1511143239 1059324504</internalNodes>
      <leafValues>
        -3.7137532234191895e-01 1.2618763744831085e-01</leafValues></_>
    <_>
      <internalNodes>
        0 -1 9225 806834268 859463991 1705443515 30412292 2056816206
        814684712 -1190257954 -2147428919</internalNodes>
      <leafValues>
        -2.6075926423072815e-01 1.9035638868808746e-01</leafValues></_>
    <_>
      <internalNodes>
        0 -1 9328 -619842070 1771213014 536902040 1090703616 402837025
        -1152591790 53389476 76515743</internalNodes>
      <leafValues>
        -3.0615344643592834e-01 1.5932548046112061e-01</leafValues></_>
    <_>
      <internalNodes>
        0 -1 10904 -671437352 -1788845324 -268369698 1035840827
        1006308580 192004251 681312294 797513663</internalNodes>
      <leafValues>
        -2.6904132962226868e-01 1.8065148591995239e-01</leafValues></_>
    <_>
      <internalNodes>
        0 -1 3806 -1052454510 -1827554816 -1904793142 -539815599
        -668022120 1065031488 255067359 -39722833</internalNodes>
      <leafValues>
        -2.1549129486083984e-01 2.2773522138595581e-01</leafValues></_>
    <_>
      <internalNodes>
        0 -1 12002 -449926896 -1711851472 1506429575 15686859 -938950420
        173477579 1519492922 27721750</internalNodes>
      <leafValues>
        -3.2139381766319275e-01 1.5380592644214630e-01</leafValues></_>
    <_>
      <internalNodes>
        0 -1 12416 21727194 543121561 268730825 21433049 722106581
        135135241 -1559804537 1120912847</internalNodes>
      <leafValues>
        -2.5150331854820251e-01 1.9581882655620575e-01</leafValues></_>
    <_>
      <internalNodes>
        0 -1 1166 -30084216 -125178832 1712152712 -11224211 72430096
        1471873395 1903048217 -103277012</internalNodes>
      <leafValues>
        -3.0469807982444763e-01 1.5829154849052429e-01</leafValues></_></weakClassifiers></stage8>
</opencv_storage>
