<?xml version="1.0"?>
<opencv_storage>
<stage18>
  <maxWeakCount>47</maxWeakCount>
  <stageThreshold>-1.0087006092071533e+00</stageThreshold>
  <weakClassifiers>
    <_>
      <internalNodes>
        0 -1 11970 -540017665 -239077733 -10290215 -268261870 -666511361
        -495704286 -839909538 -526189181</internalNodes>
      <leafValues>
        -1.1025358689948916e-03 4.4145900011062622e-01</leafValues></_>
    <_>
      <internalNodes>
        0 -1 527 1997743907 -70393053 -466090485 1233174838 1632973059
        -9435861 1999257931 2136817423</internalNodes>
      <leafValues>
        -3.0905428528785706e-01 1.6197881102561951e-01</leafValues></_>
    <_>
      <internalNodes>
        0 -1 2809 -1856776879 -1216225525 -703531902 -45367521
        -2004503560 965346586 1887673751 1947682305</internalNodes>
      <leafValues>
        -4.2005610466003418e-01 1.0654347389936447e-01</leafValues></_>
    <_>
      <internalNodes>
        0 -1 12374 182124576 158671831 268731035 44239579 76743370
        562441218 96936190 837628159</internalNodes>
      <leafValues>
        -4.2396387457847595e-01 1.2286178022623062e-01</leafValues></_>
    <_>
      <internalNodes>
        0 -1 877 -1795102054 2099039905 17362173 -609733579 -115318648
        -1680588590 8425724 1433677904</internalNodes>
      <leafValues>
        -2.9276260733604431e-01 1.4038936793804169e-01</leafValues></_>
    <_>
      <internalNodes>
        0 -1 137 -629 -734396525 -546939597 -218108173 -1216758431
        934711825 2085822736 -247204345</internalNodes>
      <leafValues>
        -1.3022312521934509e-01 3.1398558616638184e-01</leafValues></_>
    <_>
      <internalNodes>
        0 -1 10416 1405779474 1552994880 1952233174 287507592 345236160
        1577077128 -763202033 288080875</internalNodes>
      <leafValues>
        -2.5626868009567261e-01 1.4701879024505615e-01</leafValues></_>
    <_>
      <internalNodes>
        0 -1 10375 665057593 612905421 320626841 1966276948 168847613
        552075511 128328058 231007360</internalNodes>
      <leafValues>
        -2.5161451101303101e-01 1.4538510143756866e-01</leafValues></_>
    <_>
      <internalNodes>
        0 -1 1514 1393611536 -218273216 -1759879106 -304261335 335693340
        1239888808 1366822047 1553155242</internalNodes>
      <leafValues>
        -3.1382557749748230e-01 1.2346266210079193e-01</leafValues></_>
    <_>
      <internalNodes>
        0 -1 9783 -1265887038 1404944640 240658563 895569740 948618136
        388353570 911253195 170019583</internalNodes>
      <leafValues>
        -2.1280249953269958e-01 1.8053957819938660e-01</leafValues></_>
    <_>
      <internalNodes>
        0 -1 6919 -1874790440 1131070340 -515766628 -720269168 881790105
        1531397372 1044383948 968842211</internalNodes>
      <leafValues>
        -3.2076755166053772e-01 1.1008790135383606e-01</leafValues></_>
    <_>
      <internalNodes>
        0 -1 4691 236528803 529600601 34474443 267912541 -1466310405
        545904446 1359816876 982485007</internalNodes>
      <leafValues>
        -2.0454016327857971e-01 1.8629500269889832e-01</leafValues></_>
    <_>
      <internalNodes>
        0 -1 12402 -454500118 1214984436 -704790931 1232538249
        -1937865322 -1036059148 -234954757 -72637266</internalNodes>
      <leafValues>
        -1.3322597742080688e-01 2.7890977263450623e-01</leafValues></_>
    <_>
      <internalNodes>
        0 -1 6014 -1256942520 -241836891 1317805696 1494293844
        -1668766580 -658980520 1083476104 1157630795</internalNodes>
      <leafValues>
        -2.8320133686065674e-01 1.3752897083759308e-01</leafValues></_>
    <_>
      <internalNodes>
        0 -1 12236 -2108222 -251199478 -1873737660 945471500 -251293047
        977305665 -100060775 -2144173924</internalNodes>
      <leafValues>
        -2.0241929590702057e-01 1.7881859838962555e-01</leafValues></_>
    <_>
      <internalNodes>
        0 -1 9737 -796087638 -698345276 -1186671548 1344829012 342385161
        -1202649571 -2012296490 922251</internalNodes>
      <leafValues>
        -3.3612620830535889e-01 1.1727058142423630e-01</leafValues></_>
    <_>
      <internalNodes>
        0 -1 1614 1358643200 -646897579 1627464342 1143841945 607146310
        335634966 638281771 991904523</internalNodes>
      <leafValues>
        -2.9179051518440247e-01 1.2855438888072968e-01</leafValues></_>
    <_>
      <internalNodes>
        0 -1 5038 1050048159 1260016249 143527199 1938103570 474070964
        -1378957436 -1238160997 2105964597</internalNodes>
      <leafValues>
        -2.4526146054267883e-01 1.5644951164722443e-01</leafValues></_>
    <_>
      <internalNodes>
        0 -1 10596 1315072194 -574512918 -1600958254 1661021747
        1594736706 1344318041 -1524379247 1396905695</internalNodes>
      <leafValues>
        -2.4212993681430817e-01 1.5759821236133575e-01</leafValues></_>
    <_>
      <internalNodes>
        0 -1 11334 -1343412412 -946640508 -1165010752 3181162 -58553524
        -1408757862 -192565244 3315786</internalNodes>
      <leafValues>
        -3.3743253350257874e-01 1.2249231338500977e-01</leafValues></_>
    <_>
      <internalNodes>
        0 -1 9190 -775973194 -574388672 1634248848 -1086379791
        -1281653512 256455857 1954192891 -607396418</internalNodes>
      <leafValues>
        -1.1520238965749741e-01 3.6258503794670105e-01</leafValues></_>
    <_>
      <internalNodes>
        0 -1 11635 -192764830 864703993 -1505585441 188915760
        -1280815880 -2112933011 -1361572770 991662789</internalNodes>
      <leafValues>
        -2.6000803709030151e-01 1.5779805183410645e-01</leafValues></_>
    <_>
      <internalNodes>
        0 -1 9951 -106436103 1034469638 7881682 489813911 2143075251
        647443359 -1905354354 -1082901390</internalNodes>
      <leafValues>
        -1.5292048454284668e-01 2.5628086924552917e-01</leafValues></_>
    <_>
      <internalNodes>
        0 -1 206 -68637470 1952360554 1170539078 -611958118 -1216599040
        -800275703 1950417921 2000110928</internalNodes>
      <leafValues>
        -3.0833056569099426e-01 1.2188446521759033e-01</leafValues></_>
    <_>
      <internalNodes>
        0 -1 2571 -31457040 2142878168 -871840843 -1917791136
        -1509928232 -782956236 956423374 1444103427</internalNodes>
      <leafValues>
        -2.5804543495178223e-01 1.5419119596481323e-01</leafValues></_>
    <_>
      <internalNodes>
        0 -1 12418 -1434443568 217297 1275068498 -1567743872 1223166119
        151150594 -520085324 32702491</internalNodes>
      <leafValues>
        -3.4905940294265747e-01 1.0660462826490402e-01</leafValues></_>
    <_>
      <internalNodes>
        0 -1 3840 1572192398 -551869976 1378316740 2104195231 1208002764
        1544224973 940687855 -13387077</internalNodes>
      <leafValues>
        -1.5186256170272827e-01 2.5487795472145081e-01</leafValues></_>
    <_>
      <internalNodes>
        0 -1 6832 -1726615390 -1794064253 281110546 -572268458
        -1102347821 -1853712179 315591082 234981758</internalNodes>
      <leafValues>
        -2.5781401991844177e-01 1.5283441543579102e-01</leafValues></_>
    <_>
      <internalNodes>
        0 -1 6722 533489752 441471574 1191182812 -342613943 479215354
        -1633156515 1968294124 1090524192</internalNodes>
      <leafValues>
        -3.0749514698982239e-01 1.2287486344575882e-01</leafValues></_>
    <_>
      <internalNodes>
        0 -1 9170 -1949150287 249076004 -1626298272 1066469509 436364257
        -1618405216 460326242 178447567</internalNodes>
      <leafValues>
        -2.1765206754207611e-01 1.7331179976463318e-01</leafValues></_>
    <_>
      <internalNodes>
        0 -1 519 -37751088 -747099894 403859783 890208867 906794128
        1963438501 943207218 533928527</internalNodes>
      <leafValues>
        -2.1308988332748413e-01 1.8409863114356995e-01</leafValues></_>
    <_>
      <internalNodes>
        0 -1 10567 -643275558 -251050240 1744832657 -1878695896
        1132499594 -823099308 -1282923882 186849675</internalNodes>
      <leafValues>
        -2.1687416732311249e-01 1.7711144685745239e-01</leafValues></_>
    <_>
      <internalNodes>
        0 -1 11083 -2044690672 -871206894 -803821112 314051656
        -441629943 -1499113197 -907189998 1225998072</internalNodes>
      <leafValues>
        -2.4973621964454651e-01 1.5226122736930847e-01</leafValues></_>
    <_>
      <internalNodes>
        0 -1 12119 193208123 558561350 -1840046311 1832887421 448084208
        -2020296310 -1924427638 517194980</internalNodes>
      <leafValues>
        -2.1933425962924957e-01 1.8108400702476501e-01</leafValues></_>
    <_>
      <internalNodes>
        0 -1 2229 1901391922 1817987072 -924945227 -741777316 1897070985
        -1402616448 2143515389 1934623266</internalNodes>
      <leafValues>
        -2.7237290143966675e-01 1.3903768360614777e-01</leafValues></_>
    <_>
      <internalNodes>
        0 -1 5241 1908562171 -168286776 1102008569 -843625648 571203739
        -544387966 20274315 -181832138</internalNodes>
      <leafValues>
        -1.4022500813007355e-01 2.8224849700927734e-01</leafValues></_>
    <_>
      <internalNodes>
        0 -1 11232 -775835494 -1453647714 579498636 -1819496745
        -1488801375 883075666 -2044443538 63809747</internalNodes>
      <leafValues>
        -2.1288970112800598e-01 1.8635495007038116e-01</leafValues></_>
    <_>
      <internalNodes>
        0 -1 11227 -266253610 1493179426 440373048 1648354232 331402891
        483937574 186156782 1824494783</internalNodes>
      <leafValues>
        -1.8294973671436310e-01 2.2745558619499207e-01</leafValues></_>
    <_>
      <internalNodes>
        0 -1 5643 332929408 195071776 -1202134835 2064403749 122423058
        413814950 890259475 1879331616</internalNodes>
      <leafValues>
        -4.4302418828010559e-01 9.9602781236171722e-02</leafValues></_>
    <_>
      <internalNodes>
        0 -1 979 -1392378145 -210780501 -2087628082 -99626658 1531754625
        -295987382 1732462214 -8960901</internalNodes>
      <leafValues>
        -1.6084399819374084e-01 2.6327022910118103e-01</leafValues></_>
    <_>
      <internalNodes>
        0 -1 8656 -667723055 -204688672 -1570296329 -1778520016
        -1870807048 -274438456 -553898102 -1165495088</internalNodes>
      <leafValues>
        -9.1080896556377411e-02 4.3526053428649902e-01</leafValues></_>
    <_>
      <internalNodes>
        0 -1 10224 -410652517 -1751676790 356701971 -217193389
        -471022392 -990010131 -1307328296 -706742501</internalNodes>
      <leafValues>
        -1.1662028729915619e-01 3.4517222642898560e-01</leafValues></_>
    <_>
      <internalNodes>
        0 -1 10675 201390786 1067065398 1150288032 35775081 110641195
        755582220 699138767 211272214</internalNodes>
      <leafValues>
        -3.2550597190856934e-01 1.2181318551301956e-01</leafValues></_>
    <_>
      <internalNodes>
        0 -1 8224 -997764446 -953753229 545073408 -2016407196 -757728624
        -1803606103 -1654285996 680913696</internalNodes>
      <leafValues>
        -2.2469732165336609e-01 1.8327389657497406e-01</leafValues></_>
    <_>
      <internalNodes>
        0 -1 6543 1348495970 1562717217 1617352025 -205570194 1133044874
        -2045170172 2455499 1002274310</internalNodes>
      <leafValues>
        -1.8840827047824860e-01 2.0966017246246338e-01</leafValues></_>
    <_>
      <internalNodes>
        0 -1 2900 -179125106 -577745247 -353196116 -1612935254
        -1268464502 56848247 -2089448053 -8846165</internalNodes>
      <leafValues>
        -1.2560561299324036e-01 3.2579034566879272e-01</leafValues></_>
    <_>
      <internalNodes>
        0 -1 6594 -1040053678 1909178440 866379423 -1621900923
        -2129085506 -1734707146 109924302 -1705636392</internalNodes>
      <leafValues>
        -1.7324866354465485e-01 2.3202687501907349e-01</leafValues></_></weakClassifiers></stage18>
</opencv_storage>
