<?xml version="1.0"?>
<opencv_storage>
<stage13>
  <maxWeakCount>19</maxWeakCount>
  <stageThreshold>-1.3260841369628906e+00</stageThreshold>
  <weakClassifiers>
    <_>
      <internalNodes>
        0 -1 1060 -1093298797 -21006062 -1216824616 -1354827401
        -944426221 -1275198483 968295099 -75608137</internalNodes>
      <leafValues>
        -2.0312266051769257e-01 4.2985045909881592e-01</leafValues></_>
    <_>
      <internalNodes>
        0 -1 12125 -2060470230 47960065 143725650 600783061 264601807
        21602944 -1534096257 1604306430</internalNodes>
      <leafValues>
        -3.5382953286170959e-01 3.0410015583038330e-01</leafValues></_>
    <_>
      <internalNodes>
        0 -1 2940 -223887214 -211141424 732694161 1398884384 -2125846520
        147860789 -1032187254 -1307949822</internalNodes>
      <leafValues>
        -2.3271651566028595e-01 3.9329659938812256e-01</leafValues></_>
    <_>
      <internalNodes>
        0 -1 786 -667877101 1399787843 335578119 1532307546 1660957186
        277951026 1939349359 2072738351</internalNodes>
      <leafValues>
        -3.0327042937278748e-01 3.0180373787879944e-01</leafValues></_>
    <_>
      <internalNodes>
        0 -1 6966 -2145135964 -83218832 737895559 2007853824 -1805777792
        1976057846 -1757117046 -1307632638</internalNodes>
      <leafValues>
        -2.6204669475555420e-01 3.3673825860023499e-01</leafValues></_>
    <_>
      <internalNodes>
        0 -1 12271 -221264250 -757977566 754909209 -1334887824
        -1494252504 -2108360836 -2035108710 -1568013368</internalNodes>
      <leafValues>
        -2.2499100863933563e-01 3.7056976556777954e-01</leafValues></_>
    <_>
      <internalNodes>
        0 -1 12357 -693205806 -623245654 1021715195 -2069322204
        -1124104989 4487167 375526535 -2102720877</internalNodes>
      <leafValues>
        -2.7305755019187927e-01 3.0205923318862915e-01</leafValues></_>
    <_>
      <internalNodes>
        0 -1 10584 -234056814 -1306505594 787889667 1371614402
        -1397094684 360632068 -1837572945 -1576328190</internalNodes>
      <leafValues>
        -2.0436044037342072e-01 3.8510870933532715e-01</leafValues></_>
    <_>
      <internalNodes>
        0 -1 1026 -792738622 -627904606 1730195112 1350239800
        -1602513408 -1540270267 -1871399870 -491825662</internalNodes>
      <leafValues>
        -2.6683676242828369e-01 2.9770746827125549e-01</leafValues></_>
    <_>
      <internalNodes>
        0 -1 5648 806015034 -824917831 830477461 1964577153 -1139252488
        -779091808 271628527 135313</internalNodes>
      <leafValues>
        -3.9022651314735413e-01 2.1225090324878693e-01</leafValues></_>
    <_>
      <internalNodes>
        0 -1 12074 -760227934 -1302192574 -1242317455 292501025
        -1744837492 -2001308316 -1963942001 -1565817154</internalNodes>
      <leafValues>
        -2.0114131271839142e-01 4.2785683274269104e-01</leafValues></_>
    <_>
      <internalNodes>
        0 -1 12030 -210851326 -1306369004 -1275185151 1895425256
        -1263762304 747666878 -320303970 -2104541046</internalNodes>
      <leafValues>
        -2.0564454793930054e-01 3.5682737827301025e-01</leafValues></_>
    <_>
      <internalNodes>
        0 -1 12323 -127741760 -1566441282 750269105 -1854567366
        -1821380202 679231359 900764868 -1701082084</internalNodes>
      <leafValues>
        -2.2090546786785126e-01 3.3386638760566711e-01</leafValues></_>
    <_>
      <internalNodes>
        0 -1 6309 -215252814 -212103392 -462928211 -710052860 -756055876
        -671658170 -1507588694 -2109012958</internalNodes>
      <leafValues>
        -1.8177275359630585e-01 3.9956799149513245e-01</leafValues></_>
    <_>
      <internalNodes>
        0 -1 653 457602323 -1537709056 -469556305 629932418 57222706
        2028503723 1711307626 -691002463</internalNodes>
      <leafValues>
        -3.9372277259826660e-01 1.6720670461654663e-01</leafValues></_>
    <_>
      <internalNodes>
        0 -1 10256 -801766206 -585429440 -1351717901 1906788448
        -1728191484 -2077464795 582417306 -1027659942</internalNodes>
      <leafValues>
        -1.8233329057693481e-01 3.8780361413955688e-01</leafValues></_>
    <_>
      <internalNodes>
        0 -1 8695 -259812648 -684675512 736636532 -786350671 -450068340
        1423187935 20098298 -1624302437</internalNodes>
      <leafValues>
        -1.5852487087249756e-01 4.7431799769401550e-01</leafValues></_>
    <_>
      <internalNodes>
        0 -1 5082 -1743433592 843654293 167901085 -281359464 -1274901364
        -398252910 -1556075956 1359200795</internalNodes>
      <leafValues>
        -3.4865412116050720e-01 2.3265329003334045e-01</leafValues></_>
    <_>
      <internalNodes>
        0 -1 10262 -586104436 -788403950 806886592 420561921 -1301995318
        436453418 -837442869 66020303</internalNodes>
      <leafValues>
        -2.9678204655647278e-01 2.3932157456874847e-01</leafValues></_></weakClassifiers></stage13>
</opencv_storage>
