<?xml version="1.0"?>
<opencv_storage>
<stage14>
  <maxWeakCount>18</maxWeakCount>
  <stageThreshold>-9.1756165027618408e-01</stageThreshold>
  <weakClassifiers>
    <_>
      <internalNodes>
        0 -1 15 -1197622321 -756341363 304957443 585468815 772024096
        832184336 1963339779 2004292371</internalNodes>
      <leafValues>
        -2.5998082756996155e-01 4.3934667110443115e-01</leafValues></_>
    <_>
      <internalNodes>
        0 -1 11577 -1198554958 -1971278304 849702124 -1689037616
        -1606810480 381030199 442895500 -1416952758</internalNodes>
      <leafValues>
        -2.5742498040199280e-01 4.2565542459487915e-01</leafValues></_>
    <_>
      <internalNodes>
        0 -1 6414 -759822598 -1842698224 2059078848 -1809236304
        -797162368 1620342732 921195678 -1836107629</internalNodes>
      <leafValues>
        -2.2519150376319885e-01 4.3288719654083252e-01</leafValues></_>
    <_>
      <internalNodes>
        0 -1 10645 -158350110 -1096678136 573965379 95880208 590480531
        1102187824 -1340046550 -1967173014</internalNodes>
      <leafValues>
        -3.0447635054588318e-01 3.4698274731636047e-01</leafValues></_>
    <_>
      <internalNodes>
        0 -1 6063 -915930479 -1072971632 1212203158 -180608687 -64453500
        -1020919477 810130411 878125927</internalNodes>
      <leafValues>
        -5.5239897966384888e-01 2.0448590815067291e-01</leafValues></_>
    <_>
      <internalNodes>
        0 -1 8100 -207370766 -683826127 917714346 2066430176 -1773265760
        613709812 812394184 -1156628445</internalNodes>
      <leafValues>
        -2.3783518373966217e-01 4.6809691190719604e-01</leafValues></_>
    <_>
      <internalNodes>
        0 -1 12337 -202930458 -960336782 267979833 -1602085502
        -1404129144 851182605 -1865437469 -2112191866</internalNodes>
      <leafValues>
        -3.1073185801506042e-01 3.5175639390945435e-01</leafValues></_>
    <_>
      <internalNodes>
        0 -1 9968 -794048110 -1280109516 1438198004 -784388064
        -1519659988 337018741 183766419 -2094332799</internalNodes>
      <leafValues>
        -1.8712124228477478e-01 5.4087233543395996e-01</leafValues></_>
    <_>
      <internalNodes>
        0 -1 9600 -797079934 -2119484336 603600297 930554419 -1737880144
        -1401661578 -1967765349 -1364259805</internalNodes>
      <leafValues>
        -2.4615883827209473e-01 4.6757885813713074e-01</leafValues></_>
    <_>
      <internalNodes>
        0 -1 11181 -87187454 -1234621120 -1364324025 -757003031
        -1782676278 -2096863724 -1406827125 -2099597358</internalNodes>
      <leafValues>
        -2.2395958006381989e-01 4.6884772181510925e-01</leafValues></_>
    <_>
      <internalNodes>
        0 -1 10336 -88112998 -1230754064 -88166340 -1851325440
        -390181832 817246164 -1904932966 -1433697107</internalNodes>
      <leafValues>
        -2.2982418537139893e-01 4.8233142495155334e-01</leafValues></_>
    <_>
      <internalNodes>
        0 -1 810 -148240766 -1212609359 1056942745 -93487580 -1579674592
        545027669 54788951 -343206773</internalNodes>
      <leafValues>
        -2.7781012654304504e-01 4.0402847528457642e-01</leafValues></_>
    <_>
      <internalNodes>
        0 -1 10852 -74536504 -207217472 216591666 -456847224 -1406655223
        -1054269866 -937255294 -301262582</internalNodes>
      <leafValues>
        -2.2454144060611725e-01 4.6159219741821289e-01</leafValues></_>
    <_>
      <internalNodes>
        0 -1 5798 -268426624 -1295314808 268451857 1360986120
        -1433794560 134217728 17066 -958789632</internalNodes>
      <leafValues>
        -3.4854537248611450e-01 3.2989150285720825e-01</leafValues></_>
    <_>
      <internalNodes>
        0 -1 3940 -1210345852 -1708032301 372907024 -2123675028
        -1737669612 276133684 825787074 -1951722357</internalNodes>
      <leafValues>
        -2.5131195783615112e-01 4.5192486047744751e-01</leafValues></_>
    <_>
      <internalNodes>
        0 -1 5126 -106752358 -1844822112 -1363591756 -248820551
        -327351167 510818156 -848026494 -1148562268</internalNodes>
      <leafValues>
        -2.9058721661567688e-01 4.1048237681388855e-01</leafValues></_>
    <_>
      <internalNodes>
        0 -1 10216 -124780378 -242078432 -295031195 -1191760347
        -1527577310 125599077 -1830536789 -1441069806</internalNodes>
      <leafValues>
        -2.3786319792270660e-01 4.4735956192016602e-01</leafValues></_>
    <_>
      <internalNodes>
        0 -1 7710 436442144 -698341856 921971760 -64017824 -1494473564
        716971893 -1745717106 -1527839214</internalNodes>
      <leafValues>
        -3.0944472551345825e-01 3.7585610151290894e-01</leafValues></_></weakClassifiers></stage14>
</opencv_storage>
