<?xml version="1.0"?>
<opencv_storage>
<stage1>
  <maxWeakCount>17</maxWeakCount>
  <stageThreshold>-1.5026904344558716e+00</stageThreshold>
  <weakClassifiers>
    <_>
      <internalNodes>
        0 -1 71 -1 -1 -1 -1 -1025 -35845 2147450879 2147450879</internalNodes>
      <leafValues>
        -5.7033807039260864e-01 7.4755698442459106e-01</leafValues></_>
    <_>
      <internalNodes>
        0 -1 47 -2131457 -1 -17921 -1 -15519053 -4257231 2136684479
        -32905</internalNodes>
      <leafValues>
        -2.6180177927017212e-01 5.6596368551254272e-01</leafValues></_>
    <_>
      <internalNodes>
        0 -1 8099 31031545 301400319 13041919 1073686013 -1326454805
        -812802881 1004253183 1610610687</internalNodes>
      <leafValues>
        -3.2454729080200195e-01 3.2178345322608948e-01</leafValues></_>
    <_>
      <internalNodes>
        0 -1 42 -917708835 -316445 -134775361 -2150921 1564486112
        -1143679999 404821216 1459945488</internalNodes>
      <leafValues>
        -3.4945037961006165e-01 2.5417378544807434e-01</leafValues></_>
    <_>
      <internalNodes>
        0 -1 6891 -77793064 -149572195 -1117807765 -546975394
        -1139221544 1058742371 840543931 741961903</internalNodes>
      <leafValues>
        -3.6636409163475037e-01 2.3341605067253113e-01</leafValues></_>
    <_>
      <internalNodes>
        0 -1 11969 -69207045 -62127864 -414000439 1218480846 -269697858
        -659549543 -1469441 -2138507026</internalNodes>
      <leafValues>
        -2.8908944129943848e-01 2.8875651955604553e-01</leafValues></_>
    <_>
      <internalNodes>
        0 -1 380 1969160755 961848019 69280135 2056205052 558183713
        1898394887 587805463 2011908987</internalNodes>
      <leafValues>
        -2.9237669706344604e-01 2.5942951440811157e-01</leafValues></_>
    <_>
      <internalNodes>
        0 -1 12137 713000159 16247017 121557439 536543967 60814078
        198847949 729476218 -1946159169</internalNodes>
      <leafValues>
        -2.5259971618652344e-01 2.8176680207252502e-01</leafValues></_>
    <_>
      <internalNodes>
        0 -1 8600 -737636224 897624256 1375733838 -1658333307
        -1723467857 -1641024306 -1400975778 -1627927377</internalNodes>
      <leafValues>
        -2.4552340805530548e-01 2.8381550312042236e-01</leafValues></_>
    <_>
      <internalNodes>
        0 -1 737 -11524107 -537406223 -1623716417 -1208098317 456339390
        -6867312 916658937 -77064652</internalNodes>
      <leafValues>
        -1.9706329703330994e-01 3.5572761297225952e-01</leafValues></_>
    <_>
      <internalNodes>
        0 -1 10112 1556991456 -1723743720 -45552768 270522138 -823938306
        -1894835613 -698310142 294357007</internalNodes>
      <leafValues>
        -3.0331897735595703e-01 2.2830373048782349e-01</leafValues></_>
    <_>
      <internalNodes>
        0 -1 5374 -141045621 1983383630 1125112844 2023204571 1347807470
        714689068 24113282 287054602</internalNodes>
      <leafValues>
        -4.1370734572410583e-01 1.4315333962440491e-01</leafValues></_>
    <_>
      <internalNodes>
        0 -1 8439 -585856880 -641886763 281100915 -106881893 -253445682
        -25310811 -1710298481 -537944837</internalNodes>
      <leafValues>
        -1.9490346312522888e-01 3.4206011891365051e-01</leafValues></_>
    <_>
      <internalNodes>
        0 -1 770 -749636845 -503188 224734403 -539919694 674440722
        1059529595 2121344827 -81564141</internalNodes>
      <leafValues>
        -2.0596078038215637e-01 2.9551026225090027e-01</leafValues></_>
    <_>
      <internalNodes>
        0 -1 12107 -1544307457 272307679 -1963095177 1070071279
        -1114400053 767194967 -1639781637 -1281</internalNodes>
      <leafValues>
        -1.6817428171634674e-01 3.7181380391120911e-01</leafValues></_>
    <_>
      <internalNodes>
        0 -1 7212 -542245662 1430354580 -1212900160 2012179533
        -1177751350 -660451184 -1868912498 4309218</internalNodes>
      <leafValues>
        -3.2010102272033691e-01 1.9071432948112488e-01</leafValues></_>
    <_>
      <internalNodes>
        0 -1 9 1977614010 -1043728428 -706927738 -339226842 -1140305658
        1073750528 1348469264 -721349632</internalNodes>
      <leafValues>
        -3.0858129262924194e-01 1.9362194836139679e-01</leafValues></_></weakClassifiers></stage1>
</opencv_storage>
