<?xml version="1.0"?>
<opencv_storage>
<stage15>
  <maxWeakCount>40</maxWeakCount>
  <stageThreshold>-1.1470502614974976e+00</stageThreshold>
  <weakClassifiers>
    <_>
      <internalNodes>
        0 -1 665 1899434355 2138583543 637474807 -1345537 1933258968
        2142255100 1991252905 -17932373</internalNodes>
      <leafValues>
        -1.4822164177894592e-01 3.8938635587692261e-01</leafValues></_>
    <_>
      <internalNodes>
        0 -1 5644 -581119059 -170297381 -782509985 -2706164 -637155909
        -3427865 -1165803521 2143230943</internalNodes>
      <leafValues>
        -2.5228324532508850e-01 2.2261178493499756e-01</leafValues></_>
    <_>
      <internalNodes>
        0 -1 7 -136579209 -161526825 -670570795 -1506573393 -123525374
        291709473 1395864321 1608990498</internalNodes>
      <leafValues>
        -2.3868913948535919e-01 2.3315779864788055e-01</leafValues></_>
    <_>
      <internalNodes>
        0 -1 12410 16449714 29858671 -1606155385 5196371 756752387
        365617760 -1647057681 -270537745</internalNodes>
      <leafValues>
        -2.6205238699913025e-01 2.0102137327194214e-01</leafValues></_>
    <_>
      <internalNodes>
        0 -1 2533 1058109696 -1680492045 2007209945 -1046370 -2125143876
        -30309296 59409560 285212928</internalNodes>
      <leafValues>
        -2.9306909441947937e-01 1.6399133205413818e-01</leafValues></_>
    <_>
      <internalNodes>
        0 -1 12328 -555814662 -645889640 612482 134397952 -343807314
        -930316146 -624168001 -2111831846</internalNodes>
      <leafValues>
        -2.5256177783012390e-01 1.6826966404914856e-01</leafValues></_>
    <_>
      <internalNodes>
        0 -1 3955 33620493 195674114 43253783 894393608 966986670
        737804857 201950120 735019227</internalNodes>
      <leafValues>
        -2.2165265679359436e-01 2.1582080423831940e-01</leafValues></_>
    <_>
      <internalNodes>
        0 -1 9236 1918078360 -1308326772 -1582210962 2082834981
        275700826 163940572 2016934638 13348579</internalNodes>
      <leafValues>
        -3.3786779642105103e-01 1.0613204538822174e-01</leafValues></_>
    <_>
      <internalNodes>
        0 -1 1370 -583479262 -1839471930 -577243794 -2049338534 90190006
        -127293235 800223190 -595502397</internalNodes>
      <leafValues>
        -2.5585773587226868e-01 1.5974895656108856e-01</leafValues></_>
    <_>
      <internalNodes>
        0 -1 10581 -813444918 -1061529444 1114317521 1362035454
        -1608646468 28508183 1375900403 1392497162</internalNodes>
      <leafValues>
        -2.3911003768444061e-01 1.8291154503822327e-01</leafValues></_>
    <_>
      <internalNodes>
        0 -1 851 1918952934 -329657125 -116460479 -782864612 1400914545
        862273616 1195783699 2136221539</internalNodes>
      <leafValues>
        -3.2126745581626892e-01 1.2951354682445526e-01</leafValues></_>
    <_>
      <internalNodes>
        0 -1 5607 -267947288 1765224064 31282 -164145836 -1308457270
        -836696846 8684175 1948549255</internalNodes>
      <leafValues>
        -3.3537060022354126e-01 1.1816075444221497e-01</leafValues></_>
    <_>
      <internalNodes>
        0 -1 12003 -1056927736 682498731 -691312970 99036558 118498322
        69636291 -735484542 731516107</internalNodes>
      <leafValues>
        -3.5074177384376526e-01 1.1234170198440552e-01</leafValues></_>
    <_>
      <internalNodes>
        0 -1 4932 -1837153880 2103053406 -980680432 801219675 11010200
        -1702720870 12125595 151611551</internalNodes>
      <leafValues>
        -2.1528267860412598e-01 1.8207420408725739e-01</leafValues></_>
    <_>
      <internalNodes>
        0 -1 633 1371478563 -1834278893 -1116203973 -916637397 830154070
        -785301699 1303579211 1942692982</internalNodes>
      <leafValues>
        -1.8598224222660065e-01 2.0788140594959259e-01</leafValues></_>
    <_>
      <internalNodes>
        0 -1 7833 -2090823464 -50806115 -1266359908 -586878712 983206028
        -26652220 168708766 1311258</internalNodes>
      <leafValues>
        -2.9874974489212036e-01 1.1842451244592667e-01</leafValues></_>
    <_>
      <internalNodes>
        0 -1 8876 1367470506 -804251496 -2146334573 -573867371 974230017
        -1005878534 -1197231719 262621063</internalNodes>
      <leafValues>
        -2.2816894948482513e-01 1.6788533329963684e-01</leafValues></_>
    <_>
      <internalNodes>
        0 -1 526 -164572411 -807585618 -1971041502 -876139754 -800636832
        2082737681 1361526853 2103948603</internalNodes>
      <leafValues>
        -2.4689841270446777e-01 1.5487687289714813e-01</leafValues></_>
    <_>
      <internalNodes>
        0 -1 11079 -276603048 1515410186 2040096028 2195737 -49035606
        2122344671 -8167465 44808474</internalNodes>
      <leafValues>
        -2.2450122237205505e-01 1.6801275312900543e-01</leafValues></_>
    <_>
      <internalNodes>
        0 -1 10733 -1764886374 130190096 486707456 1528239562 -384175894
        170127718 53720378 44878884</internalNodes>
      <leafValues>
        -2.5561282038688660e-01 1.4192953705787659e-01</leafValues></_>
    <_>
      <internalNodes>
        0 -1 5535 -1460895056 919252268 447773922 1698510352 75823281
        1958755066 1939870095 2644153</internalNodes>
      <leafValues>
        -3.2493886351585388e-01 1.2751521170139313e-01</leafValues></_>
    <_>
      <internalNodes>
        0 -1 4529 402814032 2045188864 488660379 -586478692 135463576
        1236031360 709888875 1043611767</internalNodes>
      <leafValues>
        -3.0209052562713623e-01 1.2191761285066605e-01</leafValues></_>
    <_>
      <internalNodes>
        0 -1 10576 1227966704 -507424093 -932444022 -716767164
        -1438997136 187779206 1935725066 1539562487</internalNodes>
      <leafValues>
        -2.2186848521232605e-01 1.7711794376373291e-01</leafValues></_>
    <_>
      <internalNodes>
        0 -1 34 258222040 -140045068 -1484750476 596371484 1478668324
        -77441647 2118145344 1895830548</internalNodes>
      <leafValues>
        -4.1400447487831116e-01 9.9195443093776703e-02</leafValues></_>
    <_>
      <internalNodes>
        0 -1 8081 391142444 521106980 -2041443673 320831061 1913148670
        675410121 337696763 545656900</internalNodes>
      <leafValues>
        -3.1301796436309814e-01 1.2117223441600800e-01</leafValues></_>
    <_>
      <internalNodes>
        0 -1 2375 -2146881512 703423557 1971391180 1572976125 1091863178
        1754533600 1848839081 1791314329</internalNodes>
      <leafValues>
        -2.9949450492858887e-01 1.2530711293220520e-01</leafValues></_>
    <_>
      <internalNodes>
        0 -1 12240 -1425672096 -641142413 -2138914803 -1068553960
        -761400457 -1744588656 -1420087468 302158852</internalNodes>
      <leafValues>
        -2.5159031152725220e-01 1.5306863188743591e-01</leafValues></_>
    <_>
      <internalNodes>
        0 -1 9263 -796811580 -1466411169 -1764228986 1355286823
        -1207877498 899751307 1917643658 148889</internalNodes>
      <leafValues>
        -3.4011816978454590e-01 1.1134617030620575e-01</leafValues></_>
    <_>
      <internalNodes>
        0 -1 17 -1135619860 1894773452 201442542 -19182688 1669464626
        -261952384 1828983105 1074029584</internalNodes>
      <leafValues>
        -3.3944055438041687e-01 1.1791164427995682e-01</leafValues></_>
    <_>
      <internalNodes>
        0 -1 10784 -1040031672 1554686106 1743462870 298478138
        -738140970 -543726267 269705662 27759438</internalNodes>
      <leafValues>
        -2.6841443777084351e-01 1.4584183692932129e-01</leafValues></_>
    <_>
      <internalNodes>
        0 -1 6432 271175820 857243648 318883131 -1319171708 1342465493
        1580087192 133553914 406631651</internalNodes>
      <leafValues>
        -3.2577383518218994e-01 1.1165042221546173e-01</leafValues></_>
    <_>
      <internalNodes>
        0 -1 10649 -595409446 1921589836 142617852 290929680 -809203030
        640822041 -1823605558 296560126</internalNodes>
      <leafValues>
        -2.2689040005207062e-01 1.7147053778171539e-01</leafValues></_>
    <_>
      <internalNodes>
        0 -1 6947 361011368 2144016632 -29315833 2042064481 -228058898
        -1329942836 -1229804581 1992652905</internalNodes>
      <leafValues>
        -2.3153451085090637e-01 1.7148366570472717e-01</leafValues></_>
    <_>
      <internalNodes>
        0 -1 12143 -492854034 635667569 223927613 801050875 -1961767288
        1135084371 621331675 -809776898</internalNodes>
      <leafValues>
        -1.9243156909942627e-01 2.0539189875125885e-01</leafValues></_>
    <_>
      <internalNodes>
        0 -1 12063 1332664631 869246709 1711009767 867523833 -1205155654
        998231766 -2046713011 -1079259728</internalNodes>
      <leafValues>
        -1.5107792615890503e-01 2.6092365384101868e-01</leafValues></_>
    <_>
      <internalNodes>
        0 -1 72 -139463598 -781764764 -1280573579 -783323156 -1533963108
        -1656887490 561429907 -141831163</internalNodes>
      <leafValues>
        -1.3095235824584961e-01 2.8945425152778625e-01</leafValues></_>
    <_>
      <internalNodes>
        0 -1 10276 -725953892 -642007784 2059059104 -1251801219
        -732010872 54116342 -185284950 -1684023109</internalNodes>
      <leafValues>
        -1.1871474236249924e-01 3.2397362589836121e-01</leafValues></_>
    <_>
      <internalNodes>
        0 -1 183 -1854591806 -242616976 -628933400 1824979912 1489056884
        -154591902 1518617347 2009159661</internalNodes>
      <leafValues>
        -4.1790547966957092e-01 9.3988813459873199e-02</leafValues></_>
    <_>
      <internalNodes>
        0 -1 11145 -763980522 -1655536 -34963920 1919257980 -538124408
        -1494335625 83688618 -1564504150</internalNodes>
      <leafValues>
        -1.5318651497364044e-01 2.5478866696357727e-01</leafValues></_>
    <_>
      <internalNodes>
        0 -1 11603 -2005996308 402328728 1400214513 807612548
        -1678791710 1135413762 -498253629 268583403</internalNodes>
      <leafValues>
        -2.7414128184318542e-01 1.4166162908077240e-01</leafValues></_></weakClassifiers></stage15>
</opencv_storage>
