<?xml version="1.0"?>
<opencv_storage>
<stage11>
  <maxWeakCount>30</maxWeakCount>
  <stageThreshold>-1.2633438110351563e+00</stageThreshold>
  <weakClassifiers>
    <_>
      <internalNodes>
        0 -1 4451 296948153 1037898493 -1619029825 -2014635160 150905051
        989801707 -77620226 -33554467</internalNodes>
      <leafValues>
        -1.6035455465316772e-01 4.4821906089782715e-01</leafValues></_>
    <_>
      <internalNodes>
        0 -1 44 -795112705 -2059443297 -2019594529 1771920383 -346900568
        -1360532395 -328094240 -579732715</internalNodes>
      <leafValues>
        -2.7296370267868042e-01 2.6989763975143433e-01</leafValues></_>
    <_>
      <internalNodes>
        0 -1 11564 -1424257557 171696779 89624797 358076543 -2099380001
        246181055 -1855003393 -1946184513</internalNodes>
      <leafValues>
        -2.6778975129127502e-01 2.9168894886970520e-01</leafValues></_>
    <_>
      <internalNodes>
        0 -1 11960 -72897312 -666202106 -2146058148 -2144858108
        -1297503992 -803078144 -787938824 -1607795574</internalNodes>
      <leafValues>
        -2.6022437214851379e-01 2.3619928956031799e-01</leafValues></_>
    <_>
      <internalNodes>
        0 -1 7528 -800566336 1435521024 906036253 365238721 -2004313366
        -2130706400 536919019 541264138</internalNodes>
      <leafValues>
        -3.2917055487632751e-01 1.5806661546230316e-01</leafValues></_>
    <_>
      <internalNodes>
        0 -1 737 1966233363 853115824 1192301941 1329384528 1057043059
        1542791698 1331831551 2051235138</internalNodes>
      <leafValues>
        -3.0736708641052246e-01 2.0196756720542908e-01</leafValues></_>
    <_>
      <internalNodes>
        0 -1 12335 -1042291517 -1286930321 302415874 550046813
        -1937681761 -821751230 -1008909117 229608127</internalNodes>
      <leafValues>
        -2.5032034516334534e-01 2.2182418406009674e-01</leafValues></_>
    <_>
      <internalNodes>
        0 -1 7013 -784279408 1497628868 18214938 -1660434227 -1340831319
        975732920 -1995330821 680135324</internalNodes>
      <leafValues>
        -2.6872184872627258e-01 1.9294251501560211e-01</leafValues></_>
    <_>
      <internalNodes>
        0 -1 9005 -802924328 -644204031 1051936370 890069121 -1341857880
        -2147442484 -1151291653 -1425847557</internalNodes>
      <leafValues>
        -1.4702285826206207e-01 3.4769523143768311e-01</leafValues></_>
    <_>
      <internalNodes>
        0 -1 12 -8521993 -757352913 -911937069 -498864806 -768351535
        -1017919996 -1480379259 -749252249</internalNodes>
      <leafValues>
        -1.7060330510139465e-01 2.9514807462692261e-01</leafValues></_>
    <_>
      <internalNodes>
        0 -1 4723 -1972400608 -812621551 11738750 -93756665 407142976
        715989917 -563269969 1861953535</internalNodes>
      <leafValues>
        -3.7130084633827209e-01 1.5954297780990601e-01</leafValues></_>
    <_>
      <internalNodes>
        0 -1 8540 -139686720 -5722224 1073407228 -138727734 -1519287076
        -1449566722 -1799847718 -1146415989</internalNodes>
      <leafValues>
        -1.5992233157157898e-01 3.6860767006874084e-01</leafValues></_>
    <_>
      <internalNodes>
        0 -1 10974 -251467558 -83071006 922379440 -1858492475
        -1654823924 72671215 784307930 -607163201</internalNodes>
      <leafValues>
        -1.2578892707824707e-01 3.8297671079635620e-01</leafValues></_>
    <_>
      <internalNodes>
        0 -1 10584 -259473274 -794816880 -1091158431 -249693072
        -291262770 -696494266 -1175400758 -1297373473</internalNodes>
      <leafValues>
        -1.3599237799644470e-01 3.5751152038574219e-01</leafValues></_>
    <_>
      <internalNodes>
        0 -1 10141 -363281784 -1656575360 -1054755671 278159402
        269669248 25412656 675392154 95150843</internalNodes>
      <leafValues>
        -3.3640074729919434e-01 1.5267939865589142e-01</leafValues></_>
    <_>
      <internalNodes>
        0 -1 11591 1154646775 64948384 51452249 194597995 547547274
        1228450362 1132577023 458991723</internalNodes>
      <leafValues>
        -2.3636157810688019e-01 2.0676091313362122e-01</leafValues></_>
    <_>
      <internalNodes>
        0 -1 7553 1426621576 323326672 903098384 2107111313 521666778
        461441664 908068538 1956075987</internalNodes>
      <leafValues>
        -3.1697902083396912e-01 1.6376964747905731e-01</leafValues></_>
    <_>
      <internalNodes>
        0 -1 565 -337677822 -789348181 1958371443 -314391794 369832210
        842203912 1098274314 -144441925</internalNodes>
      <leafValues>
        -2.1675127744674683e-01 2.3418386280536652e-01</leafValues></_>
    <_>
      <internalNodes>
        0 -1 11401 1445521472 353723133 109693506 57531911 1209419818
        149160777 -2133777286 690331605</internalNodes>
      <leafValues>
        -3.1940183043479919e-01 1.4966571331024170e-01</leafValues></_>
    <_>
      <internalNodes>
        0 -1 8378 -657614632 -48692918 -66416056 -1392733357 412932822
        -63829108 -1024736561 143564447</internalNodes>
      <leafValues>
        -2.8993946313858032e-01 1.5751476585865021e-01</leafValues></_>
    <_>
      <internalNodes>
        0 -1 12415 -1600468784 42074261 -1862250157 30410790 -1738882944
        134610946 279613871 -1276164929</internalNodes>
      <leafValues>
        -2.2344730794429779e-01 2.1648779511451721e-01</leafValues></_>
    <_>
      <internalNodes>
        0 -1 10046 -256638458 -707512122 1621399496 8829342 810648736
        242614546 -929569084 537045834</internalNodes>
      <leafValues>
        -3.6219733953475952e-01 1.2530225515365601e-01</leafValues></_>
    <_>
      <internalNodes>
        0 -1 8932 -1040843091 -745063774 536905907 -1746947927
        -1158108944 1051362739 1736699599 -1610875973</internalNodes>
      <leafValues>
        -1.7401111125946045e-01 2.8480616211891174e-01</leafValues></_>
    <_>
      <internalNodes>
        0 -1 42 197162383 -543452512 190418831 1037976017 1296087704
        -1078882147 1038407564 1996972132</internalNodes>
      <leafValues>
        -2.2863067686557770e-01 2.1382273733615875e-01</leafValues></_>
    <_>
      <internalNodes>
        0 -1 10610 -586954502 1435075784 -1876821943 1359961807
        -983528373 1611302077 -539272449 -1684278529</internalNodes>
      <leafValues>
        -1.6184738278388977e-01 3.1923320889472961e-01</leafValues></_>
    <_>
      <internalNodes>
        0 -1 8250 -43003748 -595063422 1811877521 -216813852 -1770781288
        1964478422 -1145403430 -73693494</internalNodes>
      <leafValues>
        -1.2783369421958923e-01 3.8446086645126343e-01</leafValues></_>
    <_>
      <internalNodes>
        0 -1 1 -150219376 -762459936 -1874505633 -540159689 570929792
        -922734592 419434768 538124320</internalNodes>
      <leafValues>
        -2.8087824583053589e-01 1.6643604636192322e-01</leafValues></_>
    <_>
      <internalNodes>
        0 -1 7645 -184420136 971505868 -1946085043 233168653 -1996446805
        -628719394 103333194 -13797330</internalNodes>
      <leafValues>
        -1.6216693818569183e-01 2.8091129660606384e-01</leafValues></_>
    <_>
      <internalNodes>
        0 -1 11310 -200695680 396851752 -621072328 -1851189574
        -1662204739 1903984509 1148920510 -1683249767</internalNodes>
      <leafValues>
        -1.7661166191101074e-01 2.7289783954620361e-01</leafValues></_>
    <_>
      <internalNodes>
        0 -1 3787 1900781698 -19437535 292822545 -632858289 1128923148
        1895842308 587015663 1382482827</internalNodes>
      <leafValues>
        -2.7277776598930359e-01 1.7886674404144287e-01</leafValues></_></weakClassifiers></stage11>
</opencv_storage>
