<?xml version="1.0"?>
<opencv_storage>
<stage9>
  <maxWeakCount>26</maxWeakCount>
  <stageThreshold>-1.1807733774185181e+00</stageThreshold>
  <weakClassifiers>
    <_>
      <internalNodes>
        0 -1 890 -12068525 1063534999 945904985 -604088729 -366759765
        -410403639 1210047194 1999569823</internalNodes>
      <leafValues>
        -4.0553906559944153e-01 3.6596524715423584e-01</leafValues></_>
    <_>
      <internalNodes>
        0 -1 800 590545843 1570447831 862126355 -140962925 16410075
        1069220567 44200123 1006584054</internalNodes>
      <leafValues>
        -3.2417619228363037e-01 2.9488837718963623e-01</leafValues></_>
    <_>
      <internalNodes>
        0 -1 232 -514395909 -405637741 -410254090 -61294147 -469077205
        -359058517 2111468539 -101220609</internalNodes>
      <leafValues>
        -2.7191898226737976e-01 2.8342223167419434e-01</leafValues></_>
    <_>
      <internalNodes>
        0 -1 12335 -1109409129 144507547 -1878900734 -2133194624
        1611760156 541982882 -750312961 717424311</internalNodes>
      <leafValues>
        -3.2853171229362488e-01 2.5326198339462280e-01</leafValues></_>
    <_>
      <internalNodes>
        0 -1 25 -337579041 -169353897 1330599006 -9979942 -2078232420
        -2880832 2111024 -184068783</internalNodes>
      <leafValues>
        -2.7097332477569580e-01 2.3819313943386078e-01</leafValues></_>
    <_>
      <internalNodes>
        0 -1 8435 -1656104256 -683726064 -792005081 -787934731
        -640756586 -648441800 689022607 933060832</internalNodes>
      <leafValues>
        -3.7850195169448853e-01 1.3132184743881226e-01</leafValues></_>
    <_>
      <internalNodes>
        0 -1 10452 1355466758 1384579264 152305747 272763302 -305805082
        3148105 -376766068 3096998</internalNodes>
      <leafValues>
        -3.9226511120796204e-01 1.7189292609691620e-01</leafValues></_>
    <_>
      <internalNodes>
        0 -1 766 -246472704 1142104104 -1873739743 1246175359 491129088
        -1320869500 -1572464344 -213421813</internalNodes>
      <leafValues>
        -2.6254794001579285e-01 2.2519753873348236e-01</leafValues></_>
    <_>
      <internalNodes>
        0 -1 7217 -352353520 -1858010608 359946688 1527986180 -208208383
        -1793585848 -1731581800 278666</internalNodes>
      <leafValues>
        -3.4100192785263062e-01 1.4902216196060181e-01</leafValues></_>
    <_>
      <internalNodes>
        0 -1 11941 -2135979125 789414081 1402439636 229426278 429519324
        644719564 735288559 -1627527891</internalNodes>
      <leafValues>
        -2.3318563401699066e-01 2.2162634134292603e-01</leafValues></_>
    <_>
      <internalNodes>
        0 -1 12419 42614978 49095157 1358954843 542703886 1087050249
        42631336 -1463395333 -1364262177</internalNodes>
      <leafValues>
        -2.5894999504089355e-01 2.0898969471454620e-01</leafValues></_>
    <_>
      <internalNodes>
        0 -1 4866 -819879790 -696021912 582159846 -583906341 -312745150
        -1812780926 -366192470 -1347468297</internalNodes>
      <leafValues>
        -2.3153997957706451e-01 2.1819052100181580e-01</leafValues></_>
    <_>
      <internalNodes>
        0 -1 325 -209848889 898924736 1613865761 1747868846 -216321792
        492568582 1593990218 1383816351</internalNodes>
      <leafValues>
        -2.2409701347351074e-01 2.1572346985340118e-01</leafValues></_>
    <_>
      <internalNodes>
        0 -1 11333 -603989946 -243831786 -719240355 268981123 -749073846
        -348250510 1826029519 -2135716198</internalNodes>
      <leafValues>
        -2.0357351005077362e-01 2.3449115455150604e-01</leafValues></_>
    <_>
      <internalNodes>
        0 -1 6274 -243264772 -78940032 493942611 -142526435 -107163500
        -1884681024 -1845168677 -620543477</internalNodes>
      <leafValues>
        -2.0133243501186371e-01 2.3928906023502350e-01</leafValues></_>
    <_>
      <internalNodes>
        0 -1 8045 -134596360 -1648838012 -1532349175 2000405250
        1020268716 -1238067749 988840586 -1358810741</internalNodes>
      <leafValues>
        -1.4636667072772980e-01 3.1952568888664246e-01</leafValues></_>
    <_>
      <internalNodes>
        0 -1 109 924176340 255981395 -1192100909 -1948795425 218131400
        -508538666 -885897572 -1171049097</internalNodes>
      <leafValues>
        -2.0562998950481415e-01 2.3056083917617798e-01</leafValues></_>
    <_>
      <internalNodes>
        0 -1 7335 353738788 1949866559 69873418 1712267588 -229602740
        420029103 42009123 1042235047</internalNodes>
      <leafValues>
        -4.1401726007461548e-01 1.1822179704904556e-01</leafValues></_>
    <_>
      <internalNodes>
        0 -1 5885 -213727495 1971166892 869294319 1057956033 -1282610004
        -105176888 -1866920997 -1156709327</internalNodes>
      <leafValues>
        -1.4176151156425476e-01 3.5264009237289429e-01</leafValues></_>
    <_>
      <internalNodes>
        0 -1 4014 -1970660480 -581662452 -922115772 -679263919
        1770037760 -1460879208 -2104897138 67800218</internalNodes>
      <leafValues>
        -2.7711758017539978e-01 1.7232838273048401e-01</leafValues></_>
    <_>
      <internalNodes>
        0 -1 6240 607406808 -1845570354 -921951138 60584955 1910182979
        -1292801437 -1094034802 1388596773</internalNodes>
      <leafValues>
        -3.3072862029075623e-01 1.3563323020935059e-01</leafValues></_>
    <_>
      <internalNodes>
        0 -1 0 -35655024 -248184760 1510052241 -660795264 -251443184
        444663808 1212153860 -1221393855</internalNodes>
      <leafValues>
        -2.3170170187950134e-01 1.9542360305786133e-01</leafValues></_>
    <_>
      <internalNodes>
        0 -1 12049 -509275928 1459069333 -855601142 187155675
        -1546671478 -1571648904 77755579 31181566</internalNodes>
      <leafValues>
        -2.2872430086135864e-01 2.0288607478141785e-01</leafValues></_>
    <_>
      <internalNodes>
        0 -1 1214 2066280482 1519593636 -1978595832 1596448512 290521107
        -775854552 1881412379 1942585121</internalNodes>
      <leafValues>
        -3.4465864300727844e-01 1.3923776149749756e-01</leafValues></_>
    <_>
      <internalNodes>
        0 -1 3802 -788251120 321127764 826776457 -778301423 1107821452
        1307100296 2141348379 346818656</internalNodes>
      <leafValues>
        -3.4149026870727539e-01 1.3229571282863617e-01</leafValues></_>
    <_>
      <internalNodes>
        0 -1 10749 -2118219591 905877692 251429233 527242538 471449599
        277513452 526839433 -1346460445</internalNodes>
      <leafValues>
        -1.9315543770790100e-01 2.5926455855369568e-01</leafValues></_></weakClassifiers></stage9>
</opencv_storage>
