<?xml version="1.0"?>
<opencv_storage>
<stage12>
  <maxWeakCount>25</maxWeakCount>
  <stageThreshold>-1.2248830795288086e+00</stageThreshold>
  <weakClassifiers>
    <_>
      <internalNodes>
        0 -1 8009 325749347 162267455 299892984 165552857 -1326735116
        465348925 -726165263 -1111783128</internalNodes>
      <leafValues>
        -2.5624454021453857e-01 4.0463489294052124e-01</leafValues></_>
    <_>
      <internalNodes>
        0 -1 21 939230662 1537149454 -689394366 1925488042 1076142592
        -536313600 1348562944 1366782464</internalNodes>
      <leafValues>
        -4.8064193129539490e-01 1.8773330748081207e-01</leafValues></_>
    <_>
      <internalNodes>
        0 -1 11582 138603003 119343313 -2097034925 368382361 1737208303
        146409658 212235691 197117387</internalNodes>
      <leafValues>
        -2.6076337695121765e-01 2.8993579745292664e-01</leafValues></_>
    <_>
      <internalNodes>
        0 -1 6885 -53159720 -679351663 -2063597169 -174069732
        -1027268375 -1717730774 -565648417 2107077077</internalNodes>
      <leafValues>
        -3.3567216992378235e-01 2.1264344453811646e-01</leafValues></_>
    <_>
      <internalNodes>
        0 -1 11970 -783034545 -643837693 1396921332 -1073741744
        -590630965 -127634814 -446242949 1625002</internalNodes>
      <leafValues>
        -2.9534229636192322e-01 2.1343849599361420e-01</leafValues></_>
    <_>
      <internalNodes>
        0 -1 38 1208265402 -478030249 138428915 1617549855 268677234
        -1256246249 -248818671 -802996621</internalNodes>
      <leafValues>
        -3.5689628124237061e-01 1.7458018660545349e-01</leafValues></_>
    <_>
      <internalNodes>
        0 -1 8040 -234300286 -559773774 586296192 -1323496784 -585443696
        -1987543244 -1394205030 -1154808662</internalNodes>
      <leafValues>
        -1.9505673646926880e-01 3.6599630117416382e-01</leafValues></_>
    <_>
      <internalNodes>
        0 -1 10681 -653993260 -653490040 138937353 -639680495
        -2130671413 1486890674 -763702291 1807548619</internalNodes>
      <leafValues>
        -1.9765800237655640e-01 3.0441001057624817e-01</leafValues></_>
    <_>
      <internalNodes>
        0 -1 5558 -985603944 -66050395 -1291573192 -644540672
        -2113758468 -877550591 303087867 -619642837</internalNodes>
      <leafValues>
        -2.0843143761157990e-01 2.8881257772445679e-01</leafValues></_>
    <_>
      <internalNodes>
        0 -1 7488 -786234190 -5538902 -1459673352 -75778496 -440433251
        -1649131728 -1360129650 -82902901</internalNodes>
      <leafValues>
        -1.3286660611629486e-01 4.4647911190986633e-01</leafValues></_>
    <_>
      <internalNodes>
        0 -1 8515 -61304640 -586379904 587202494 -1649461648 -1481864040
        -2043728628 -2132738390 -1148484598</internalNodes>
      <leafValues>
        -1.4292211830615997e-01 4.0475419163703918e-01</leafValues></_>
    <_>
      <internalNodes>
        0 -1 9000 -172305214 -538396032 2008999048 297087328 -1124230006
        -1925179692 -1285128053 -1693768566</internalNodes>
      <leafValues>
        -1.4764226973056793e-01 4.2833158373832703e-01</leafValues></_>
    <_>
      <internalNodes>
        0 -1 10236 -751186784 -686805184 2113693700 -1288360536
        -1245903732 -1208689388 -1672291142 -83149365</internalNodes>
      <leafValues>
        -1.3929571211338043e-01 4.1657432913780212e-01</leafValues></_>
    <_>
      <internalNodes>
        0 -1 239 -238585341 -2129797265 -2146941741 -503251820 953963479
        -1904119365 -1170198655 1873768122</internalNodes>
      <leafValues>
        -3.0537045001983643e-01 2.0623758435249329e-01</leafValues></_>
    <_>
      <internalNodes>
        0 -1 12112 -938348350 8448074 17616993 256754955 -1286428470
        5410820 -787359597 219013273</internalNodes>
      <leafValues>
        -3.0267590284347534e-01 1.8515935540199280e-01</leafValues></_>
    <_>
      <internalNodes>
        0 -1 9382 -799377700 -574080888 1652837528 495292645 -1466256710
        -295923149 17479738 -2004620357</internalNodes>
      <leafValues>
        -2.4242179095745087e-01 2.3656228184700012e-01</leafValues></_>
    <_>
      <internalNodes>
        0 -1 597 -245420030 1948397570 187237424 330766139 1362436866
        1416893813 536875882 -216172685</internalNodes>
      <leafValues>
        -2.2387205064296722e-01 2.5788542628288269e-01</leafValues></_>
    <_>
      <internalNodes>
        0 -1 10340 -645868040 -1769983756 117489665 399185907 719372314
        377634980 328276790 800012795</internalNodes>
      <leafValues>
        -2.6555189490318298e-01 2.1684506535530090e-01</leafValues></_>
    <_>
      <internalNodes>
        0 -1 11202 1390624986 -247483392 10535685 50531414 -388702080
        284034634 -1475452245 1897654235</internalNodes>
      <leafValues>
        -2.2500205039978027e-01 2.4715133011341095e-01</leafValues></_>
    <_>
      <internalNodes>
        0 -1 5021 -1876899200 -719094112 -1342194075 2013214403
        -965811072 -986253484 -1524844374 -74480630</internalNodes>
      <leafValues>
        -1.3940854370594025e-01 3.9728266000747681e-01</leafValues></_>
    <_>
      <internalNodes>
        0 -1 6671 -738289424 1431610659 1997373568 1912408524
        -1591367092 353274270 480546262 864326639</internalNodes>
      <leafValues>
        -3.5930964350700378e-01 1.6279631853103638e-01</leafValues></_>
    <_>
      <internalNodes>
        0 -1 10008 -595487340 287379048 989485792 321119193 -1611101044
        18152828 -174025526 -74512952</internalNodes>
      <leafValues>
        -1.5797394514083862e-01 3.3842951059341431e-01</leafValues></_>
    <_>
      <internalNodes>
        0 -1 11858 -207058288 -630707054 1860353045 -266205143
        -2130774848 -2078230667 -1627681622 -1842731446</internalNodes>
      <leafValues>
        -2.1147455275058746e-01 2.7093476057052612e-01</leafValues></_>
    <_>
      <internalNodes>
        0 -1 9718 -345250854 -946886484 -839788467 -203050202 -796210263
        -514187262 -209982590 -405806881</internalNodes>
      <leafValues>
        -1.6735573112964630e-01 3.3285826444625854e-01</leafValues></_>
    <_>
      <internalNodes>
        0 -1 9006 -1870651752 -1794516792 262722 -1652256111 -796331925
        -1300217656 -220026181 34556575</internalNodes>
      <leafValues>
        -3.0918416380882263e-01 1.8580129742622375e-01</leafValues></_></weakClassifiers></stage12>
</opencv_storage>
