<?xml version="1.0"?>
<opencv_storage>
<stage7>
  <maxWeakCount>30</maxWeakCount>
  <stageThreshold>-1.1943837404251099e+00</stageThreshold>
  <weakClassifiers>
    <_>
      <internalNodes>
        0 -1 898 2145351423 -8389131 -604016673 -18 -67438913 -68177203
        2136731647 2013222739</internalNodes>
      <leafValues>
        -3.7816557288169861e-01 3.9619612693786621e-01</leafValues></_>
    <_>
      <internalNodes>
        0 -1 653 2003859251 2071440871 1551597375 -1509983157 863007167
        -80390217 1073201135 -822275</internalNodes>
      <leafValues>
        -2.7080884575843811e-01 3.3742877840995789e-01</leafValues></_>
    <_>
      <internalNodes>
        0 -1 12389 -2037445985 148300243 327699219 63686899 554604707
        25445251 -1826417725 -1610638353</internalNodes>
      <leafValues>
        -2.8584346175193787e-01 2.8502392768859863e-01</leafValues></_>
    <_>
      <internalNodes>
        0 -1 6288 -666838496 -578482151 1355019123 2098558295 -779831057
        1067897218 1246294010 370949086</internalNodes>
      <leafValues>
        -4.1666030883789063e-01 1.6918841004371643e-01</leafValues></_>
    <_>
      <internalNodes>
        0 -1 13 -153099265 -545824429 -504374426 -578820563 -515690208
        -215876592 1975599152 1967346433</internalNodes>
      <leafValues>
        -2.9437506198883057e-01 2.4469161033630371e-01</leafValues></_>
    <_>
      <internalNodes>
        0 -1 10423 -361276437 -181841388 1591690432 856473862 1742187282
        -1711816566 -202913814 9152643</internalNodes>
      <leafValues>
        -3.0903020501136780e-01 1.8565654754638672e-01</leafValues></_>
    <_>
      <internalNodes>
        0 -1 9184 19610011 468129437 330673055 531963950 741606814
        682947198 765835499 794286510</internalNodes>
      <leafValues>
        -2.0558607578277588e-01 2.7108159661293030e-01</leafValues></_>
    <_>
      <internalNodes>
        0 -1 51 1945494969 1744281463 536504571 -1076890113 -44928776
        -1098667 1715583231 -76066493</internalNodes>
      <leafValues>
        -2.0786873996257782e-01 2.7061814069747925e-01</leafValues></_>
    <_>
      <internalNodes>
        0 -1 532 -174263517 1635678805 1944747443 -346860021 861422426
        -1285822640 1943091807 -13940002</internalNodes>
      <leafValues>
        -2.1552650630474091e-01 2.5725984573364258e-01</leafValues></_>
    <_>
      <internalNodes>
        0 -1 10642 -883373944 1473445164 -1542438903 1067194199
        428507342 145527959 1369268440 201296831</internalNodes>
      <leafValues>
        -2.7750539779663086e-01 1.8969805538654327e-01</leafValues></_>
    <_>
      <internalNodes>
        0 -1 7770 -1131807240 -1324219115 1553401233 420554113
        1223581892 990380425 -1148531826 271288458</internalNodes>
      <leafValues>
        -2.6630082726478577e-01 1.8953901529312134e-01</leafValues></_>
    <_>
      <internalNodes>
        0 -1 3831 286290840 1931095306 1467310226 -1473928123 -870014052
        2064253416 156193935 -15825716</internalNodes>
      <leafValues>
        -1.9618324935436249e-01 2.5602063536643982e-01</leafValues></_>
    <_>
      <internalNodes>
        0 -1 12329 -1280837698 -616687346 830554604 405016580 -319096640
        -723480408 512877035 -2004711024</internalNodes>
      <leafValues>
        -2.5837141275405884e-01 1.9901739060878754e-01</leafValues></_>
    <_>
      <internalNodes>
        0 -1 5509 1635373208 -137718630 2112570903 1373213314 274969546
        -1078027827 -969475884 -69369858</internalNodes>
      <leafValues>
        -1.6448697447776794e-01 2.9131498932838440e-01</leafValues></_>
    <_>
      <internalNodes>
        0 -1 11134 -789851076 1380993052 -1338603115 -1340017766
        -164696192 -1666956231 961693903 -1606831106</internalNodes>
      <leafValues>
        -2.1226271986961365e-01 2.2427824139595032e-01</leafValues></_>
    <_>
      <internalNodes>
        0 -1 820 1537041410 1365065989 92738595 2140090507 571172384
        608894978 331510575 1797995306</internalNodes>
      <leafValues>
        -2.7910307049751282e-01 1.7337103188037872e-01</leafValues></_>
    <_>
      <internalNodes>
        0 -1 6823 -634204008 -1173675736 146802968 831784401 -1293907764
        -1177942968 -2134217553 1028377563</internalNodes>
      <leafValues>
        -2.1864892542362213e-01 2.2570164501667023e-01</leafValues></_>
    <_>
      <internalNodes>
        0 -1 9831 1354779858 -1719580352 906513008 1284600073 -163414518
        1481556133 -256456054 770223</internalNodes>
      <leafValues>
        -2.9468345642089844e-01 1.6221798956394196e-01</leafValues></_>
    <_>
      <internalNodes>
        0 -1 0 -68552966 1894547420 -285254030 2078011279 -446775407
        1078775157 -1242545920 -1231342063</internalNodes>
      <leafValues>
        -1.8229004740715027e-01 2.6330342888832092e-01</leafValues></_>
    <_>
      <internalNodes>
        0 -1 12012 -1611803310 575998737 -1927233372 538242858
        -628532503 -790788048 -1387791696 -1060456795</internalNodes>
      <leafValues>
        -2.4781246483325958e-01 1.9991073012351990e-01</leafValues></_>
    <_>
      <internalNodes>
        0 -1 8757 -669508536 -240962928 2086564281 364189405 -1178439674
        -2099630074 -284524402 702</internalNodes>
      <leafValues>
        -2.9355511069297791e-01 1.6668735444545746e-01</leafValues></_>
    <_>
      <internalNodes>
        0 -1 3977 334721631 -547506415 2137987779 -103100934 -761966975
        -313129173 -652687160 -93902078</internalNodes>
      <leafValues>
        -1.9348399341106415e-01 2.5728744268417358e-01</leafValues></_>
    <_>
      <internalNodes>
        0 -1 9300 -7809326 1369690842 423144306 1374342396 -561711386
        -551505787 -1591765800 -671114925</internalNodes>
      <leafValues>
        -1.7437811195850372e-01 2.8470024466514587e-01</leafValues></_>
    <_>
      <internalNodes>
        0 -1 3923 -1165009185 1467431774 253963741 2119913330 992179131
        531841777 2051945131 -606514072</internalNodes>
      <leafValues>
        -1.4792308211326599e-01 3.1687545776367188e-01</leafValues></_>
    <_>
      <internalNodes>
        0 -1 7029 285798616 1336415233 1253448149 521627380 1343230090
        2142119098 -1824372290 -9765973</internalNodes>
      <leafValues>
        -2.1108810603618622e-01 2.1594358980655670e-01</leafValues></_>
    <_>
      <internalNodes>
        0 -1 99 -731652470 1200833966 -651094135 734927983 1274171424
        -1424665244 2000617985 1863595539</internalNodes>
      <leafValues>
        -3.8248929381370544e-01 1.2507651746273041e-01</leafValues></_>
    <_>
      <internalNodes>
        0 -1 10445 284884154 358007949 31121610 -796773241 818069922
        183257698 -1588934578 11256019</internalNodes>
      <leafValues>
        -2.9908567667007446e-01 1.6065788269042969e-01</leafValues></_>
    <_>
      <internalNodes>
        0 -1 11418 -847060734 -1251678974 555796512 5753350 150483432
        127405053 -1997823616 33780536</internalNodes>
      <leafValues>
        -3.5410562157630920e-01 1.3428153097629547e-01</leafValues></_>
    <_>
      <internalNodes>
        0 -1 11332 -210775468 -76188100 -8458243 -1876783558 -19006411
        -1649097330 -218259525 -2104566206</internalNodes>
      <leafValues>
        -1.9476857781410217e-01 2.5013342499732971e-01</leafValues></_>
    <_>
      <internalNodes>
        0 -1 8546 -641412406 1940115653 -238219891 493321409 -1400335972
        -2135289652 -1019954453 629425406</internalNodes>
      <leafValues>
        -2.4114821851253510e-01 1.9295386970043182e-01</leafValues></_></weakClassifiers></stage7>
</opencv_storage>
