<?xml version="1.0"?>
<opencv_storage>
<stage0>
  <maxWeakCount>9</maxWeakCount>
  <stageThreshold>-1.3856256008148193e+00</stageThreshold>
  <weakClassifiers>
    <_>
      <internalNodes>
        0 -1 71 -1 -1 -1 -8193 2113926143 2147427323 1061124095
        2139043839</internalNodes>
      <leafValues>
        -6.8758714199066162e-01 8.0980980396270752e-01</leafValues></_>
    <_>
      <internalNodes>
        0 -1 71 -167774217 1474761149 2136940541 2136813439 -748680773
        -1288471705 1943515131 327633683</internalNodes>
      <leafValues>
        -5.0054663419723511e-01 4.5761394500732422e-01</leafValues></_>
    <_>
      <internalNodes>
        0 -1 6288 -573580344 -174721781 274719187 1561309661 -1281523253
        -48360799 118128639 392126975</internalNodes>
      <leafValues>
        -4.2883813381195068e-01 3.1626990437507629e-01</leafValues></_>
    <_>
      <internalNodes>
        0 -1 11975 -68166433 422248482 -1885653867 48956111 -1854412581
        682344627 -546329697 146784751</internalNodes>
      <leafValues>
        -3.2638487219810486e-01 3.5878673195838928e-01</leafValues></_>
    <_>
      <internalNodes>
        0 -1 641 -147372253 -671632869 391609115 -5286101 829641243
        2090079011 2065635131 -76077505</internalNodes>
      <leafValues>
        -2.4103567004203796e-01 4.2145845293998718e-01</leafValues></_>
    <_>
      <internalNodes>
        0 -1 7586 -786640552 1061225344 1362334995 -170175501 -574698765
        -1153740404 -1700798533 -576783139</internalNodes>
      <leafValues>
        -2.8774353861808777e-01 3.5253965854644775e-01</leafValues></_>
    <_>
      <internalNodes>
        0 -1 1232 1936810096 1537963832 1236016126 1610612730 870392760
        -1353024583 526805951 -570851874</internalNodes>
      <leafValues>
        -2.6688709855079651e-01 3.3580386638641357e-01</leafValues></_>
    <_>
      <internalNodes>
        0 -1 90 -67374137 -615551783 1581632955 -531625 -200786904
        -682551287 1381455776 -703074045</internalNodes>
      <leafValues>
        -2.6333010196685791e-01 3.4384578466415405e-01</leafValues></_>
    <_>
      <internalNodes>
        0 -1 8475 -656879448 -778567154 821648008 -238718819 -1741884180
        -1743224693 -1330779909 -1903181601</internalNodes>
      <leafValues>
        -2.4640205502510071e-01 3.5154253244400024e-01</leafValues></_></weakClassifiers></stage0>
</opencv_storage>
