<?xml version="1.0"?>
<opencv_storage>
<stage16>
  <maxWeakCount>38</maxWeakCount>
  <stageThreshold>-1.0910319089889526e+00</stageThreshold>
  <weakClassifiers>
    <_>
      <internalNodes>
        0 -1 12401 46858267 63149027 -1356128643 725328122 724556287
        15179773 2080369151 1811910139</internalNodes>
      <leafValues>
        -1.1197691410779953e-01 3.8475072383880615e-01</leafValues></_>
    <_>
      <internalNodes>
        0 -1 3318 -36838413 -548842875 1922519959 -7605055 -739395389
        -672122389 -1756808257 2146854815</internalNodes>
      <leafValues>
        -3.3815369009971619e-01 1.7459528148174286e-01</leafValues></_>
    <_>
      <internalNodes>
        0 -1 746 561455441 2146515760 271844876 -12551450 870846874
        1980790338 935923915 2144078427</internalNodes>
      <leafValues>
        -3.3229038119316101e-01 1.5643408894538879e-01</leafValues></_>
    <_>
      <internalNodes>
        0 -1 12333 -942688338 1137427734 4460834 48287936 -665673394
        -1408614269 -967584818 132774</internalNodes>
      <leafValues>
        -3.0345851182937622e-01 1.8343751132488251e-01</leafValues></_>
    <_>
      <internalNodes>
        0 -1 6952 -247596815 -571099724 -1073295409 -715846249
        -1375151908 -525201262 1615912639 807605207</internalNodes>
      <leafValues>
        -2.9026740789413452e-01 1.5229921042919159e-01</leafValues></_>
    <_>
      <internalNodes>
        0 -1 1721 -1416544496 -39501547 1393567314 -539993250 430542536
        -670692864 -1408432118 268451849</internalNodes>
      <leafValues>
        -2.9474276304244995e-01 1.4066289365291595e-01</leafValues></_>
    <_>
      <internalNodes>
        0 -1 821 805393152 -210669464 1006739971 -100843197 553657088
        -1336254350 1644370491 976058955</internalNodes>
      <leafValues>
        -2.9880329966545105e-01 1.1129701137542725e-01</leafValues></_>
    <_>
      <internalNodes>
        0 -1 9589 -612304166 1571356704 551637577 392112373 33858282
        -1441855339 325565371 774628601</internalNodes>
      <leafValues>
        -1.4792080223560333e-01 2.5024732947349548e-01</leafValues></_>
    <_>
      <internalNodes>
        0 -1 9000 -240352118 -906600 -156586876 -38176455 -2031319924
        -1253993449 -1695767830 -620035894</internalNodes>
      <leafValues>
        -1.3004131615161896e-01 3.3538201451301575e-01</leafValues></_>
    <_>
      <internalNodes>
        0 -1 9435 -802646840 -172181248 -1344098329 1898776144
        -1259295604 -187150500 477928650 -2111700790</internalNodes>
      <leafValues>
        -1.7844787240028381e-01 2.4401891231536865e-01</leafValues></_>
    <_>
      <internalNodes>
        0 -1 3785 -784084856 -116572160 285741121 -713751091 1644216522
        1779155984 587412447 2070114859</internalNodes>
      <leafValues>
        -2.1054500341415405e-01 1.7705200612545013e-01</leafValues></_>
    <_>
      <internalNodes>
        0 -1 11104 -1801925542 1100096660 -1471091614 7729394 -527941618
        42207251 1090208921 30117823</internalNodes>
      <leafValues>
        -2.8695294260978699e-01 1.4800162613391876e-01</leafValues></_>
    <_>
      <internalNodes>
        0 -1 6825 -1851171462 2105846421 453918652 -45805306 -1595179954
        -434503654 884617386 604046063</internalNodes>
      <leafValues>
        -3.0592399835586548e-01 1.1718244850635529e-01</leafValues></_>
    <_>
      <internalNodes>
        0 -1 25 -169790722 -571026492 1330269470 -8534697 590356708
        -277665568 1342199312 1459827825</internalNodes>
      <leafValues>
        -3.1005695462226868e-01 1.2909993529319763e-01</leafValues></_>
    <_>
      <internalNodes>
        0 -1 11250 -735128854 -1860133696 -1434884928 -1316901127
        -1804631416 107247485 1369615514 -1615084901</internalNodes>
      <leafValues>
        -1.4294059574604034e-01 2.7830109000205994e-01</leafValues></_>
    <_>
      <internalNodes>
        0 -1 12391 -939800398 -883094917 985193635 -2140864020
        -1828525686 268240378 1571856331 189506219</internalNodes>
      <leafValues>
        -1.4268411695957184e-01 2.5172370672225952e-01</leafValues></_>
    <_>
      <internalNodes>
        0 -1 12126 -745958696 304353441 -1878458224 -1836777324
        -1817583424 136315041 692360 520798350</internalNodes>
      <leafValues>
        -1.9395315647125244e-01 1.9924989342689514e-01</leafValues></_>
    <_>
      <internalNodes>
        0 -1 10676 -608518016 -1215783888 -1393636192 -1114799384
        -1871278976 98860628 -452995638 -1954820913</internalNodes>
      <leafValues>
        -1.3820463418960571e-01 2.7356022596359253e-01</leafValues></_>
    <_>
      <internalNodes>
        0 -1 5824 -2146189304 1060667955 1752602371 802096329 -990526486
        -1100044909 728383163 250270730</internalNodes>
      <leafValues>
        -2.4917943775653839e-01 1.5266045928001404e-01</leafValues></_>
    <_>
      <internalNodes>
        0 -1 10131 -795856808 -203586543 471652856 809812563 -1264811876
        -1153433003 -233149476 42651387</internalNodes>
      <leafValues>
        -2.3464854061603546e-01 1.6965606808662415e-01</leafValues></_>
    <_>
      <internalNodes>
        0 -1 8261 185045140 90378400 51729413 488456963 -1206138703
        83350705 -2116041491 180967836</internalNodes>
      <leafValues>
        -2.6841747760772705e-01 1.4786162972450256e-01</leafValues></_>
    <_>
      <internalNodes>
        0 -1 5826 -232354102 -537211488 653135113 2037738404 -1271003916
        545611573 -1309210981 -69530601</internalNodes>
      <leafValues>
        -1.6910775005817413e-01 2.4514554440975189e-01</leafValues></_>
    <_>
      <internalNodes>
        0 -1 386 -166452702 -1546783869 285878052 1650592172 2012684305
        1898456356 1227034903 2068527887</internalNodes>
      <leafValues>
        -3.6845344305038452e-01 1.2589465081691742e-01</leafValues></_>
    <_>
      <internalNodes>
        0 -1 7199 -263437128 -100626412 1680109940 680333587 2089939072
        -276487930 -2129973747 1063200732</internalNodes>
      <leafValues>
        -4.3672153353691101e-01 7.7845647931098938e-02</leafValues></_>
    <_>
      <internalNodes>
        0 -1 9938 -1786920724 461621120 105138872 1560294147 -519055158
        473239713 479168755 440122276</internalNodes>
      <leafValues>
        -2.5094839930534363e-01 1.6659142076969147e-01</leafValues></_>
    <_>
      <internalNodes>
        0 -1 11969 -69217330 1461220400 1751276201 -796907628 -24991217
        -1791450806 -146876477 -2147427957</internalNodes>
      <leafValues>
        -2.2463168203830719e-01 1.7567475140094757e-01</leafValues></_>
    <_>
      <internalNodes>
        0 -1 5564 842794489 -4588395 -520570085 -147781805 1353715962
        -272610934 310434367 1594494203</internalNodes>
      <leafValues>
        -1.4565494656562805e-01 2.6763108372688293e-01</leafValues></_>
    <_>
      <internalNodes>
        0 -1 7093 -1878224648 1000149704 639909967 747319356 193073340
        -1163290492 607331262 1565760686</internalNodes>
      <leafValues>
        -2.3368389904499054e-01 1.6971485316753387e-01</leafValues></_>
    <_>
      <internalNodes>
        0 -1 10986 -796343168 -1725493918 2092714000 -1041683200
        -1400918872 106737380 107663278 -1684293969</internalNodes>
      <leafValues>
        -1.3392849266529083e-01 2.7187249064445496e-01</leafValues></_>
    <_>
      <internalNodes>
        0 -1 10277 -184496950 1931185282 754631793 1602552965 -692607862
        1088431741 -1964606326 -141622325</internalNodes>
      <leafValues>
        -1.4130619168281555e-01 2.7907121181488037e-01</leafValues></_>
    <_>
      <internalNodes>
        0 -1 9090 -265649984 -1749938710 -2038714432 1562370617
        -1231076100 397754230 -423707218 -542379013</internalNodes>
      <leafValues>
        -1.2653419375419617e-01 3.0012288689613342e-01</leafValues></_>
    <_>
      <internalNodes>
        0 -1 801 -257372128 1514684740 549474403 1977155664 -2146496510
        538984459 545432288 1936168043</internalNodes>
      <leafValues>
        -2.0489796996116638e-01 1.9197142124176025e-01</leafValues></_>
    <_>
      <internalNodes>
        0 -1 7980 422474970 -754966672 -525337675 -584504208 -1134193016
        -32352524 -243487557 -115284276</internalNodes>
      <leafValues>
        -1.4765669405460358e-01 2.6484134793281555e-01</leafValues></_>
    <_>
      <internalNodes>
        0 -1 7146 -240664382 -1088280577 543557112 871409343 -540109576
        1733947204 -419657846 -1691716178</internalNodes>
      <leafValues>
        -1.2303567677736282e-01 2.9954046010971069e-01</leafValues></_>
    <_>
      <internalNodes>
        0 -1 11686 -156318008 -798814624 -296403733 -789346784
        -1254193190 -966828235 1823259902 -1433468437</internalNodes>
      <leafValues>
        -1.4306938648223877e-01 2.7760565280914307e-01</leafValues></_>
    <_>
      <internalNodes>
        0 -1 181 1480919354 1376978023 -1017569490 -2072044371
        1923483681 1891893251 120861953 1935955255</internalNodes>
      <leafValues>
        -4.9494042992591858e-01 8.5171520709991455e-02</leafValues></_>
    <_>
      <internalNodes>
        0 -1 12107 969451827 436570535 549620977 115707047 -2060812038
        479124104 80678340 838283429</internalNodes>
      <leafValues>
        -2.8292754292488098e-01 1.4302596449851990e-01</leafValues></_>
    <_>
      <internalNodes>
        0 -1 10340 -578750218 -1115475832 789168361 1508852789 -93786534
        551952041 285639671 521110498</internalNodes>
      <leafValues>
        -1.8962652981281281e-01 2.1188513934612274e-01</leafValues></_></weakClassifiers></stage16>
</opencv_storage>
