<?xml version="1.0"?>
<opencv_storage>
<stage6>
  <maxWeakCount>22</maxWeakCount>
  <stageThreshold>-1.3532657623291016e+00</stageThreshold>
  <weakClassifiers>
    <_>
      <internalNodes>
        0 -1 6003 -34215169 -198192291 -1707120370 -1074650573 -25328677
        -72408575 -339252297 2147433407</internalNodes>
      <leafValues>
        -3.4179720282554626e-01 4.7165390849113464e-01</leafValues></_>
    <_>
      <internalNodes>
        0 -1 31 -613944389 -50479369 184847173 -268435461 -881581133
        -4433053 2031366947 -49345</internalNodes>
      <leafValues>
        -3.0191233754158020e-01 3.5754147171974182e-01</leafValues></_>
    <_>
      <internalNodes>
        0 -1 11970 -673189969 -118172542 796441574 -1610086812
        -358632781 -889175036 -335549526 -2143109602</internalNodes>
      <leafValues>
        -2.9388451576232910e-01 3.2298618555068970e-01</leafValues></_>
    <_>
      <internalNodes>
        0 -1 2010 1596215797 -677347847 341928111 2111831376 -730852472
        -433817040 301996879 1930367911</internalNodes>
      <leafValues>
        -4.3373245000839233e-01 2.0025227963924408e-01</leafValues></_>
    <_>
      <internalNodes>
        0 -1 10751 152772731 47649297 -2079239145 623221015 13533349
        233394345 1597221115 230394075</internalNodes>
      <leafValues>
        -3.3622634410858154e-01 2.5051125884056091e-01</leafValues></_>
    <_>
      <internalNodes>
        0 -1 4350 -473922824 -57236064 1760053400 -1522688448 36885008
        -91405692 999950970 -269208408</internalNodes>
      <leafValues>
        -3.1128183007240295e-01 2.4538628756999969e-01</leafValues></_>
    <_>
      <internalNodes>
        0 -1 743 1366503891 -143060093 255344905 -42708351 851403711
        2079856791 301599470 -306282850</internalNodes>
      <leafValues>
        -1.8264095485210419e-01 3.8651001453399658e-01</leafValues></_>
    <_>
      <internalNodes>
        0 -1 10078 1443541418 1421918222 1150452953 1376608326
        -1034960344 1946452096 2047788631 38371547</internalNodes>
      <leafValues>
        -3.8016420602798462e-01 1.6389489173889160e-01</leafValues></_>
    <_>
      <internalNodes>
        0 -1 11332 -138343 -74619247 -143720969 -2011128665 -2630004
        -32946786 -1443365687 -2006771992</internalNodes>
      <leafValues>
        -1.7353224754333496e-01 3.8827759027481079e-01</leafValues></_>
    <_>
      <internalNodes>
        0 -1 11420 2136182954 1505743877 -1207787507 20121858
        -1631006519 824312617 -260865496 126744191</internalNodes>
      <leafValues>
        -3.1658002734184265e-01 2.1257881820201874e-01</leafValues></_>
    <_>
      <internalNodes>
        0 -1 877 -1651410746 -44756528 218428892 -140436672 137517512
        -132082686 1344274440 386924612</internalNodes>
      <leafValues>
        -3.6643415689468384e-01 1.9386847317218781e-01</leafValues></_>
    <_>
      <internalNodes>
        0 -1 9466 -704514934 1502625826 279463061 -2122233715 -532496250
        -1140063608 -1031740853 42183131</internalNodes>
      <leafValues>
        -2.9542940855026245e-01 2.2723251581192017e-01</leafValues></_>
    <_>
      <internalNodes>
        0 -1 6722 -791626544 -684452868 1646857799 -1851424689
        -1466630916 -57760560 -1107520371 -785837590</internalNodes>
      <leafValues>
        -2.2992318868637085e-01 2.8620997071266174e-01</leafValues></_>
    <_>
      <internalNodes>
        0 -1 8507 -1806626728 820084748 739639477 1068204531 501741987
        1155600579 -1597472109 497129165</internalNodes>
      <leafValues>
        -3.4339517354965210e-01 1.9139845669269562e-01</leafValues></_>
    <_>
      <internalNodes>
        0 -1 725 1381305863 1935405342 1210279958 -1010708394 1997607681
        1678973441 2132435963 -67413189</internalNodes>
      <leafValues>
        -2.3815795779228210e-01 2.7062198519706726e-01</leafValues></_>
    <_>
      <internalNodes>
        0 -1 10804 -440025016 -787939325 1455436624 1840272439
        -798047029 -18343725 -1562268759 2505163</internalNodes>
      <leafValues>
        -3.1024113297462463e-01 1.9480538368225098e-01</leafValues></_>
    <_>
      <internalNodes>
        0 -1 72 -173181226 -227573970 707784349 -204477716 -451361020
        203220788 -1188105216 -1287146476</internalNodes>
      <leafValues>
        -2.1598829329013824e-01 2.8276643157005310e-01</leafValues></_>
    <_>
      <internalNodes>
        0 -1 256 -1298667452 -1207951115 -739098279 -1085304740 21103852
        933495008 270668249 1696034868</internalNodes>
      <leafValues>
        -4.1313427686691284e-01 1.4777103066444397e-01</leafValues></_>
    <_>
      <internalNodes>
        0 -1 6280 -2025829924 -682077488 474371485 -582146231 -572929800
        -37625656 -1354084609 -1085242134</internalNodes>
      <leafValues>
        -1.8968933820724487e-01 3.4057489037513733e-01</leafValues></_>
    <_>
      <internalNodes>
        0 -1 12410 -1813408045 -868249745 -1694552160 279675003
        1014386099 629026686 331087615 -153096457</internalNodes>
      <leafValues>
        -1.5839847922325134e-01 3.7798845767974854e-01</leafValues></_>
    <_>
      <internalNodes>
        0 -1 9854 -804717326 -7520026 949641328 19238927 -397370744
        1515153994 817545831 574861903</internalNodes>
      <leafValues>
        -2.8223469853401184e-01 2.1860001981258392e-01</leafValues></_>
    <_>
      <internalNodes>
        0 -1 2906 -716836648 -41079368 883939993 -445184511 -1677029190
        -1726931743 34233243 -764854253</internalNodes>
      <leafValues>
        -2.0006157457828522e-01 3.2476437091827393e-01</leafValues></_></weakClassifiers></stage6>
</opencv_storage>
